-0.012538895	0.040462155	0.18748572	-0.1788029	-0.0017425965	-0.323158	-0.050786316	0.00044787477	0.69126934	-0.10504665	0.26446408	0.104489066	0.36719602	-0.22620638	0.314798	0.11312996
-0.27270687	0.29304036	0.09146971	0.16650338	-0.049978025	-0.4896014	0.016199093	0.14287849	0.3664212	0.17599139	0.13359153	-0.13015541	0.35105643	0.04703263	0.30778274	0.022163374
0.033746894	-0.03717259	0.24438407	0.29141033	0.3149073	0.07941521	-0.045232926	-0.26823407	0.4418727	0.16755818	-0.13425553	-0.13712433	-0.2228129	0.201254	-0.21587922	0.120835796
-0.009000784	-0.014863194	-0.054806694	-0.0021923897	-0.055711452	0.004860691	-0.009977504	-0.023130978	0.048265863	0.09321488	0.16815545	0.035646856	0.03297799	0.059783597	-0.08261451	-0.08904282
0.06142861	-0.084465265	-0.08093923	0.21784618	-0.06297621	0.08256065	0.25878185	-0.018590013	-0.023460688	0.09752737	-0.190097	-0.39679763	0.017645866	0.26153237	-0.28604707	-0.18234864
0.32239613	-0.4019294	0.6738754	0.46900794	0.8010231	0.499336	0.08086153	-0.7681664	0.78548974	-0.02733211	-0.43762892	-0.19011107	-0.5028664	0.2575906	-0.41260985	0.5633957
-0.001331696	-0.061476994	0.067659624	-0.009461989	0.060059626	-0.06468644	0.0067172837	-0.04469833	0.23152605	-0.09535631	0.027793992	-0.031521294	0.08603446	-0.054343905	0.066379845	0.07236755
0.41043776	-0.44361314	-0.037574206	-0.27658135	-0.004407107	0.4727553	0.09392544	-0.23440363	0.07648877	-0.2348608	-0.028017642	0.026705168	-0.121907234	-0.19809523	-0.36542183	0.06630949
0.106858775	-0.15638539	0.02202549	-0.12796235	0.0092480015	0.12154441	-0.02688572	-0.08272425	0.1963041	-0.08931736	0.060446065	0.045055795	0.0088406475	-0.05034387	-0.039656986	0.08113596
-0.16530338	0.114415094	0.22190703	-0.24952331	0.14725302	-0.21240282	-0.406813	-0.21388002	0.47297323	-0.13637073	0.51110566	0.47414315	-0.08244001	-0.41241607	0.51633877	0.31775156
-0.13062765	0.10483303	0.14497408	-0.09889618	0.1323986	-0.120023966	-0.21236832	-0.12404559	0.31894663	-0.042941134	0.19469799	0.22981098	-0.027833013	-0.12507747	0.19933446	0.15521769
0.12905557	-0.06112849	0.04023653	-0.15953857	-0.122313365	0.005017158	0.1539681	0.0990057	0.07059452	-0.051773757	0.04752554	-0.09730629	0.20248857	-0.104800545	0.022227323	-0.0029239724
0.09869022	-0.14076918	-0.3518624	-0.15273762	-0.25356838	0.16586536	0.19576244	0.13780034	-0.29322574	0.010105658	0.18266137	-0.12751104	0.025183173	0.03191149	-0.458033	-0.3240498
-0.14437526	0.24632743	-0.073965155	0.0791	-0.07411629	-0.23224132	-0.10759101	0.14025727	0.010528423	0.099960394	0.23220904	-0.012775857	0.08562582	0.0806875	0.16612278	-0.059294812
-0.21509267	0.2611297	-0.16562006	0.19564927	-0.22308186	-0.25413704	0.23682855	0.2625411	-0.07892029	0.14959736	0.11530242	-0.35083407	0.2618966	0.21127255	0.021696417	-0.2697241
-0.122353494	0.122923896	-0.14838192	0.016827816	-0.2551935	-0.13830264	0.19440006	0.18313622	-0.03319066	0.05975373	0.08498779	-0.17471536	0.268187	0.1185077	-0.054526377	-0.22724228
0.05882075	-0.13815808	0.51159346	0.56141526	0.6239868	0.3558546	-0.06339972	-0.57317317	0.48789728	0.26229256	-0.28388712	-0.0063357996	-0.59590036	0.44717976	-0.26378196	0.4424991
-0.2177967	0.19951615	-0.19649197	0.03813221	-0.27485642	-0.16415729	-0.15743561	0.18725485	-0.0775365	0.1916442	0.36419207	0.038626105	0.07652294	0.108432285	0.06766828	-0.13546951
-0.07468692	0.14607063	-0.03221891	0.054139365	-0.08171202	-0.12597263	0.0345631	0.06893595	0.02650119	0.08998602	0.08734011	-0.04143943	0.11469163	0.0505284	0.08145293	-0.1012203
0.00548631	-0.0108072655	-0.11357167	0.029311508	-0.07093344	-0.055885065	0.09047346	0.06299458	0.03859651	0.024143722	0.056020703	-0.14176126	0.07879171	0.04723074	-0.07950556	-0.05815758
-0.048296295	0.024160638	-0.11818733	0.06512262	-0.05129691	-0.019901358	-0.025637329	0.048878603	-0.05321061	0.12057955	0.13672593	0.036897507	-0.022390993	0.12722406	-0.051262476	-0.058432803
0.35145953	-0.42408168	0.36248538	-0.042367745	0.31690055	0.2762171	0.16853972	-0.40727323	0.3909139	-0.24306516	-0.19477247	-0.03193275	-0.09310081	-0.10026147	-0.20682046	0.36425474
-0.040820748	0.057964437	0.12987451	-0.03681917	0.073767856	-0.10604009	-0.0005540742	-0.0725892	0.17521793	-0.06252832	0.058881704	0.12869228	0.06325901	-0.058445018	0.11906282	0.09311972
0.15863933	-0.038439546	0.24558043	-0.2163213	-0.10795233	-0.40574178	0.39595073	0.20443149	0.38466668	-0.23052937	-0.11115507	-0.10395285	0.5718318	-0.24951509	0.3711878	0.115862876
-0.0003274511	-0.015207873	0.042378213	0.052044023	0.016165582	-0.018077558	0.13493021	-0.01108405	0.062424086	0.0031736384	-0.053750657	-0.11371344	0.09647092	0.0092969565	-0.03687669	0.0042220936
-0.011760105	0.04820725	-0.18146661	0.06370319	-0.20497125	-0.053709902	0.14814879	0.15344639	-0.11369364	0.07974115	0.03851445	-0.20051163	0.13628657	0.098961435	-0.07962028	-0.19236246
0.12380732	-0.15108241	-0.038433596	0.0049200025	-0.04058673	0.1362386	0.0061521335	-0.083841264	0.030163579	-0.039690316	-0.026326034	-0.061971374	-0.07615609	0.04474389	-0.1416611	0.0040629404
0.04148523	-0.040076334	-0.03939551	0.1206117	-0.034538165	0.09129012	0.13424535	0.021737302	0.081815	0.082429394	-0.14194578	-0.2579204	0.07340432	0.1379794	-0.1790605	-0.10001187
0.57832843	-0.33350053	0.6247924	-0.61205375	-0.18668725	-0.6969938	0.6964536	0.47549313	0.7236043	-0.6231215	-0.5354597	-0.14932159	0.7700985	-0.69152474	0.73693246	0.48566762
-0.014320327	0.092287585	-0.03543705	0.062949225	-0.0695136	-0.12804502	0.121358715	0.1119974	0.07146755	0.04354935	-0.052197445	-0.14583649	0.09301325	0.04321198	0.042265348	-0.052905925
0.10846502	-0.0687211	-0.10258191	-0.04889832	-0.12873021	0.0443505	0.0763393	0.050753426	-0.040862992	-0.02751916	0.037211787	-0.12044149	0.056585792	-0.04806114	-0.12373194	-0.118878685
0.51008224	-0.48874557	0.1862538	-0.58318585	-0.25618377	-0.06481155	0.37563452	0.11237227	0.3595135	-0.4969331	-0.08659952	0.16350906	0.42334974	-0.5853315	0.2698755	0.32907256
-0.0838288	0.066030584	-0.4173814	-0.08853708	-0.49598432	-0.061144978	0.2236303	0.26483122	-0.354074	0.12118657	0.48436874	-0.17629834	0.18843928	0.110396884	-0.33234572	-0.37510967
0.12106106	-0.1951918	0.007248895	-0.16888733	0.019741816	0.22636698	-0.01832106	-0.11612787	0.047563296	-0.18046468	0.08748097	0.118974954	-0.032604624	-0.16268297	-0.07956436	0.114018045
0.07232731	-0.036995035	-0.048766427	-0.10031152	-0.19552985	0.016823418	0.19921201	0.037786227	-0.004812891	-0.017538393	0.07732757	-0.06489717	0.14118983	-0.033440728	-0.055811323	-0.057807148
0.06923016	-0.14179084	0.21538025	-0.041278716	0.24906594	0.12170735	-0.16340685	-0.2681776	0.32775217	-0.053886272	0.03140485	0.15235206	-0.15910473	-0.047842238	0.04668593	0.23976813
0.43292794	-0.47252244	0.44268295	0.67274565	0.577933	0.57651216	0.5436858	-0.5423658	0.5516954	0.22452569	-0.5965285	-0.6131609	-0.50077784	0.6153553	-0.60160136	0.26849836
0.06609995	-0.050443053	-0.044274084	0.07392925	-0.045803178	0.086417645	0.06289235	-0.017780773	0.063735664	0.036932178	-0.058667812	-0.06774685	-0.03388747	0.095143944	-0.13995813	-0.044617046
0.20908189	-0.14590323	0.037103783	-0.024894856	0.046802048	0.014857102	0.34546784	0.081476904	0.1455657	-0.049616728	-0.17353295	-0.31144208	0.20684232	-0.03364446	-0.11849395	0.011032803
-0.19503686	0.18444219	-0.1854195	0.18102582	-0.17716178	-0.21791165	0.02255407	0.17859954	-0.069111474	0.26397905	0.18995763	-0.16549295	0.050233807	0.20290351	-0.055032495	-0.19705787
-0.056448553	0.093319066	-0.1322201	0.04254277	-0.06799359	-0.009965106	0.027362539	0.11754675	-0.027153889	0.06978065	0.10633285	-0.05116682	0.09144084	0.10520719	-0.028690718	-0.14013693
0.0319907	0.020358423	0.05930239	-0.11701902	-0.0677027	-0.13875633	0.08805785	0.12951653	0.079199634	-0.028631205	0.06193353	-0.0864125	0.20983988	-0.032168914	0.050755963	-0.032733567
-0.17464216	0.14342307	-0.0962762	0.11770557	-0.12132723	-0.14568758	0.06264606	0.10972906	-0.08297901	0.16956685	0.10053124	-0.10317599	0.036160126	0.15726702	-0.039287746	-0.08748285
-0.20023945	0.17277592	-0.0600367	0.05577268	-0.12084224	-0.22522487	-0.0765559	0.062261075	0.07407973	0.1240536	0.17110787	0.042979762	0.07525333	0.045060676	0.14423949	-0.04649623
-0.09756573	0.13450761	-0.060299553	0.0050165677	-0.12356352	-0.15146042	0.017779194	0.098763905	-0.0477704	0.05151524	0.14472792	-0.085414074	0.11081136	0.088201225	0.014376341	-0.11047672
0.01050797	-0.09644325	-0.13203257	-0.083352156	-0.07701694	0.058576964	0.059433807	0.024328124	-0.10598189	0.053774793	0.029012686	-0.035331365	-0.03088987	-0.0055852477	-0.20655365	-0.11178342
-0.12136318	0.08245811	-0.1544673	0.051665284	-0.119741365	-0.10992731	-0.03126861	0.10247103	-0.070874386	0.072609335	0.0831477	-0.015954152	0.00039950805	0.06649191	0.02758928	-0.081200615
-0.15531379	0.052235484	0.17834462	-0.09553334	0.26965353	0.012870917	-0.4394301	-0.393433	0.29113278	-0.00066662	0.48343447	0.53112626	-0.45352915	-0.29307795	0.28681663	0.33367318
-0.26542222	0.17974734	0.28900167	-0.09147722	0.25493574	-0.069257386	-0.4998096	-0.3768982	0.29923496	-0.00026046683	0.49493068	0.51318544	-0.34612808	-0.295491	0.33321458	0.3589413
-0.1284347	0.029658005	0.22036645	0.11996493	0.17756529	-0.005042096	-0.17146678	-0.21378951	0.21137933	0.076254986	0.07670834	0.17734197	-0.10895975	-0.042162884	0.07951576	0.14110814
0.097707406	-0.100272715	0.048593722	0.09760007	0.10317046	0.205954	0.11485851	-0.14036039	0.026214262	0.048482317	-0.09612868	-0.11138623	-0.16727579	0.18664242	-0.26092702	-0.049566876
0.12338766	-0.123382255	-0.014422256	0.018853843	-0.010384713	0.110033795	0.2655331	0.03560755	-0.039281495	0.032194976	-0.07658846	-0.25762337	0.0487972	0.10719613	-0.18651424	-0.069267415
-0.19729061	0.15086225	-0.2180423	0.108787954	-0.22538698	-0.21656258	-0.0021471302	0.20172948	-0.16609861	0.1362242	0.25293553	-0.1663514	0.14400554	0.11901434	-0.022408932	-0.24375017
-0.10581002	0.04493701	-0.12192321	-0.013543807	-0.18538348	-0.12519267	0.16473205	0.17021501	-0.0839835	0.07414023	0.08123498	-0.1575849	0.17921475	0.08501283	-0.07275709	-0.18303713
0.41678298	-0.3969273	0.43293676	0.48963547	0.47974318	0.4759912	0.4351743	-0.4487588	0.42299417	0.05157499	-0.51156074	-0.5210172	-0.3634046	0.41332203	-0.4729299	0.3130742
-0.11557492	0.10123653	-0.0684346	0.18023267	-0.043942813	-0.10008626	-0.033679914	-0.047756344	0.041239753	0.17422368	0.08596861	-0.016481243	-0.104224734	0.18518116	-0.04015759	-0.045170724
0.07850002	-0.060841072	0.10200162	0.07841403	0.063939765	0.13757719	0.09815052	-0.13900864	0.111836664	0.011443154	-0.05738952	-0.07445356	-0.07300053	0.028265407	-0.091662444	0.064207874
-0.1494956	0.094279125	0.14558928	-0.09888947	0.05630401	-0.13310479	-0.29354793	-0.1349497	0.2968515	-0.06295531	0.30351654	0.3853743	-0.099918306	-0.21987416	0.37190744	0.2532977
0.32617256	-0.46052125	0.41387478	0.5290748	0.5235539	0.4939862	0.44824222	-0.5051078	0.48014063	0.043846253	-0.46779916	-0.5046299	-0.41277093	0.48423094	-0.5477594	0.26506767
0.013745572	-0.003058587	-0.027248591	-0.03844939	0.007694983	0.096344344	-0.08816372	-0.108851895	0.08723856	-0.00154357	0.093110636	0.03192594	-0.16571532	-0.025133293	-0.08563852	0.025130231
-0.27290827	0.35047734	-0.33203608	0.2542092	-0.32874835	-0.32629326	0.38568687	0.38418144	-0.25394827	0.2713319	0.17844646	-0.38447168	0.36524954	0.35444048	-0.06301871	-0.33992037
0.43445656	-0.36504894	0.34710893	-0.4816218	0.015813306	-0.15710749	0.386151	0.11046146	0.41626728	-0.46263295	-0.16754755	0.08391362	0.44085783	-0.5245375	0.38373324	0.39478388
0.07723221	-0.10081562	-0.29151756	-0.32745987	-0.3446945	0.15900359	-0.05600434	0.030971207	-0.29633376	-0.10358645	0.49281055	0.19172843	-0.05779463	-0.10860983	-0.36861074	-0.18838872
-0.117002785	0.16971748	-0.12775435	0.006576707	-0.18593152	-0.40382528	0.24712121	0.31614432	0.052909043	0.09720528	0.023607748	-0.18954605	0.4296274	0.06714059	0.171084	-0.20854214
-0.11155585	0.07792374	-0.14075273	0.13456814	-0.14591508	-0.13198201	0.2586432	0.15345028	-0.1438308	0.11495406	-0.033177402	-0.22638315	0.13360621	0.16681066	-0.08220572	-0.14908682
-0.30585936	0.32566243	-0.3271811	0.5048168	-0.28023246	-0.22436018	0.18073183	0.2622173	-0.29573616	0.3775829	0.17851351	-0.40113446	0.10578121	0.45893782	-0.23738962	-0.33984387
-0.015035347	0.08789104	-0.06128178	0.03792071	-0.1365121	-0.012684899	0.11133147	0.07405786	-0.011080226	0.07679633	0.039870106	-0.15205969	0.05773047	0.057519764	-0.0006757592	-0.1373607
-0.28292266	0.09938127	0.1945847	-0.07666712	0.27830583	0.028688896	-0.4906511	-0.4114701	0.32090098	-0.024124257	0.5328799	0.52148956	-0.50772345	-0.26730433	0.3233824	0.4128127
0.26413837	-0.29959258	0.1386188	-0.25232622	0.07437941	0.13763787	0.022570355	-0.19786707	0.33038446	-0.3060167	0.06586687	0.21050927	0.09105986	-0.31706098	0.07433288	0.21293728
-0.13475588	0.11712975	0.0052035144	0.090241365	-0.013321345	-0.14034323	-0.16716693	-0.05654289	0.07908054	0.13104032	0.13425438	0.09670063	-0.11999048	0.03713307	0.087920114	-0.026931725
0.08733114	-0.11945692	0.13758762	0.21827704	0.1878672	0.2023172	0.022696154	-0.10145551	0.15274143	0.075973846	-0.14520375	-0.11891263	-0.13501127	0.13459218	-0.2483698	0.05674899
-0.07564199	0.15732113	-0.20734584	-0.010520788	-0.34337664	-0.21342966	0.31450006	0.28548822	-0.15969719	0.13998057	0.18887885	-0.2062747	0.28752545	0.09545215	0.019539474	-0.20606057
0.019344544	0.048120383	0.017016597	0.09451849	0.00739632	0.011770036	-0.0073268944	0.011555523	0.06524801	0.050813556	0.0036289243	0.004546246	0.046353772	0.08777933	0.025128407	-0.057645466
0.024188638	-0.012571657	-0.010589639	-0.15951078	-0.08519894	-0.05710471	0.21020971	0.14220749	0.03148686	-0.038284376	-0.035110887	-0.14102764	0.28768602	-0.13057083	0.03322176	-0.039667364
0.17091961	-0.2210873	0.28648767	0.23257202	0.262563	0.17681965	0.12681681	-0.27999067	0.28580588	0.02262369	-0.17510761	-0.14183582	-0.11152956	0.15070805	-0.18434158	0.1491186
-0.08749479	0.11145449	-0.14616477	0.019327635	-0.09207886	-0.0979982	-0.054523755	0.105191566	-0.008654886	0.10255678	0.24120066	-0.009698956	0.041937053	0.11596404	0.054940935	-0.13284881
0.048265826	-0.0033183568	-0.0029052347	-0.027023898	0.05802024	0.05833283	0.011395431	-0.10007964	0.14162895	0.01284199	-0.018059418	-0.024739487	-0.03346363	0.0057400833	-0.07138211	0.028024735
0.2569012	-0.28614423	-0.13689907	-0.20723467	-0.11576893	0.307704	0.029762954	-0.120852925	-0.08505162	-0.16955143	0.07653324	0.099392734	-0.13367365	-0.11001439	-0.27218232	-0.05017029
0.3740945	-0.37462205	0.30130318	0.56509703	0.4023023	0.43743896	0.47244197	-0.3343454	0.382951	0.08840667	-0.48977458	-0.51366603	-0.34019	0.46550325	-0.46490815	0.18816358
-0.051715735	0.03230785	-0.16038129	0.028518792	-0.15951827	-0.046623517	0.14840795	0.1777593	-0.108616285	0.06446262	0.06304558	-0.17718299	0.12283171	0.08774364	-0.06099125	-0.17885111
-0.18300505	0.2177685	-0.12939201	0.019601354	-0.19170786	-0.23721161	0.1419181	0.22526774	-0.050311934	0.14568232	0.15891851	-0.1661686	0.21104378	0.03636059	0.12914596	-0.12244169
0.15007171	-0.17804869	0.34873012	0.5171621	0.42036745	0.3266754	0.07541759	-0.4066189	0.33887133	0.20456553	-0.28636432	-0.1629322	-0.4252489	0.38184908	-0.27524358	0.24605265
-0.16933951	0.11907156	0.1799399	0.07495358	0.20013379	-0.17187355	-0.208546	-0.13744119	0.17064443	0.14710423	0.1870961	0.25778997	-0.21747877	-0.045963015	0.18526022	0.18420121
-0.07248484	0.10079837	-0.10482102	0.09886608	-0.11327074	-0.08445103	-0.04770544	0.05044994	0.031661686	0.08853232	0.03724471	-0.03627937	0.015405094	0.09987493	0.050874755	-0.04617646
0.06980281	-0.068790205	0.113747984	-0.11960741	0.1452288	0.16828497	-0.108190484	-0.24348994	0.16222464	-0.04800956	0.15149999	0.18620673	-0.21401452	-0.08746604	-0.010572321	0.10744535
-0.09507491	0.10348662	0.11352563	0.20143923	0.12414664	-0.040157586	-0.1104721	-0.1381926	0.08197997	0.10829039	0.016962323	0.04715274	-0.13735877	0.14309211	-0.038931705	0.09021812
0.43111396	-0.40719122	-0.4035711	-0.40089333	-0.35807604	0.42200756	-0.11603005	-0.21221596	-0.28293756	-0.4541395	0.45729882	0.36261705	-0.1940756	-0.3775232	-0.38446447	-0.1515716
0.14278613	-0.089993715	0.10028071	0.037640054	0.011638939	0.010099434	0.34727398	0.049045846	0.111162886	0.0176932	-0.16242723	-0.3235804	0.23298286	0.043896385	-0.04473651	-0.066719644
-0.11369016	0.087383084	-0.055232577	-0.003575692	-0.070165575	-0.084736854	-0.16346459	-0.042026356	-0.06362375	0.09165509	0.15601832	0.067505114	-0.086636156	0.038878035	0.005861175	-0.09483528
-0.052687336	0.042672455	0.24553525	-0.023435526	0.21387348	-0.08257128	-0.25183332	-0.238118	0.3202056	0.017669806	0.10170986	0.24800614	-0.12240846	-0.12659648	0.14094943	0.2120889
0.21595947	-0.19659019	-0.057433914	-0.11582396	-0.06385645	0.16272676	0.070553854	-0.07302374	-0.031296857	-0.074492596	0.06033959	0.051472288	-0.08483778	-0.116075255	-0.2311666	-0.035768934
-0.12882696	0.07086359	-0.37457278	-0.12282054	-0.32159328	-0.037942156	0.06923826	0.19099176	-0.2790957	0.12662375	0.45284912	-0.06196814	0.14946863	0.100548916	-0.37200692	-0.23844117
-0.03419233	0.013913071	-0.09912347	-0.0077880993	-0.11225997	0.009510225	0.022151574	0.0731389	-0.086044215	0.016399818	0.091646835	0.028064543	0.01227871	0.05844509	-0.06315344	-0.051637813
0.39187223	-0.3610755	0.1632929	-0.40404	-0.20649394	0.038163982	0.25582278	0.11541426	0.28045863	-0.35760146	-0.026673706	0.12351609	0.33061385	-0.42853874	0.260847	0.1343289
-0.050951038	-0.06342221	0.1667691	0.07877945	0.15682934	0.09559409	-0.14172943	-0.20393135	0.23298544	0.011543176	0.02660093	0.092408076	-0.18050152	0.043193273	-0.07407227	0.136345
0.29246366	-0.26082975	0.302399	0.3613834	0.3495176	0.28847837	0.2908826	-0.29619554	0.30963665	0.059926406	-0.3766043	-0.43849784	-0.13925274	0.26505125	-0.3022528	0.08996021
-0.08326686	0.05188984	-0.04861234	-0.033030838	-0.07190664	-0.08223172	0.030688005	0.03953053	-0.07869721	0.07732027	0.09767282	-0.05301096	0.067791715	0.06540356	-0.021784179	-0.1032439
-0.06362613	0.09478667	-0.086239666	-0.07637877	-0.09958093	-0.17514251	-0.0012341139	0.08819191	0.056016278	-0.024603302	0.12656459	0.026064413	0.12982556	-0.06801456	0.12665035	-0.045732435
0.07975253	-0.08096096	0.0021840595	0.019196969	0.0710214	0.113463305	-0.009010754	-0.067535535	0.072780855	-0.01381248	-0.010781733	-0.05802565	-0.057496544	0.0010986032	-0.09786609	-0.0028740824
0.14398146	-0.19614875	0.28985205	0.32753277	0.32444006	0.31691113	0.10414297	-0.3045508	0.22043692	0.13962242	-0.28918234	-0.18252632	-0.24482907	0.23979408	-0.27202618	0.1323034
-0.20100564	0.22035778	-0.16994107	0.106472924	-0.18117371	-0.21297929	0.3355934	0.21596386	-0.08973236	0.18608879	0.13754332	-0.26306996	0.2652801	0.14611456	0.06538497	-0.16520043
-0.12967987	0.06466138	-0.02605328	0.028188052	-0.004253509	-0.02563152	-0.114215024	-0.0071504605	-0.051670045	0.09992439	0.048761882	-0.025209185	-0.06513963	0.1263641	-0.058860302	-0.036314346
-0.08785718	0.0064413864	-0.062834	-0.059040938	-0.074212894	-0.062660575	-0.04670453	0.015576746	0.04888071	0.07599686	0.11866349	-0.0051582744	-0.03782467	-0.019668408	0.054321397	-0.031446174
-0.06211404	-0.013750949	-0.0018105634	0.10123396	-0.04814097	-0.050670955	0.035571728	0.030867444	-0.038920667	0.09978822	0.010040679	-0.09915232	0.008496346	0.09848013	-0.054701515	-0.11502389
-0.36065692	0.31499866	0.3635305	0.041285235	0.37710097	-0.27560687	-0.43767115	-0.39014074	0.36270967	0.23574802	0.49331778	0.5175262	-0.44577697	-0.18952496	0.44078815	0.37612724
-0.21664721	0.16314398	0.28391472	-0.031697277	0.22414227	-0.2551286	-0.24842435	-0.26293457	0.45805088	-0.010990877	0.35458308	0.3532105	-0.12975006	-0.24851038	0.43798324	0.36976078
0.30855766	-0.3549868	-0.3678038	-0.4415999	-0.41449457	0.419414	-0.092116	-0.0034715715	-0.26209703	-0.29106584	0.5042247	0.3356591	-0.036271732	-0.39142066	-0.39293155	-0.18380478
-0.028961424	0.1079836	-0.039722387	0.13357872	-0.05631636	-0.10296399	0.25736496	0.116905384	-0.012692701	0.09420649	-0.10681715	-0.19476795	0.17829879	0.10209006	0.022149984	-0.09943999
-0.41695738	0.37698478	0.4394654	0.36587036	0.47455862	-0.2601516	-0.43962687	-0.438892	0.42056513	0.338809	0.33186454	0.47876784	-0.47899854	0.017462881	0.38154852	0.45434883
0.29358935	-0.33102694	-0.16016172	-0.29287547	-0.12120917	0.3094737	-0.0056863218	-0.15682206	-0.04517314	-0.27660787	0.11863766	0.09045115	-0.02185253	-0.18185452	-0.22069952	-0.009631647
-0.17797403	0.18153211	-0.17380609	0.22486731	-0.19972616	-0.21123397	0.15006058	0.20842917	-0.20863186	0.25056392	0.14503676	-0.2223469	0.18813072	0.23292992	-0.08683021	-0.22210845
-0.089354895	-0.0041499203	0.06467658	0.01714528	0.031174233	0.07764783	-0.20676367	-0.16378586	0.08712562	0.08583057	0.15134667	0.1462713	-0.23675431	0.036718864	-0.0040874416	0.10849571
0.021456117	-0.049209185	0.14728794	-0.0074539096	0.13132896	-0.036424022	0.089103855	-0.12692356	0.22369136	-0.10170487	-0.05539161	-0.026795305	0.0826613	-0.054584585	0.0587661	0.10265697
-0.216239	0.2325989	-0.024393149	0.24907756	-0.02348832	-0.18429808	0.0036969476	0.0067368047	0.012225291	0.20708151	0.015534207	-0.046711836	-0.02391267	0.18418887	0.017394204	-0.10972365
-0.23974118	0.16490568	0.13416378	0.15502962	0.14621232	-0.02217322	-0.31976482	-0.23350824	0.20485541	0.16844335	0.20366006	0.26238933	-0.32158574	0.07243476	0.1310552	0.114849366
0.14534347	-0.084573165	0.09860799	0.21446331	0.10328859	0.1582062	0.35492313	-0.044693958	0.0026233755	0.05630364	-0.27628186	-0.4443053	-0.01755132	0.23699242	-0.2629231	-0.108767875
-0.11466493	0.11935845	-0.1465384	0.15146564	-0.08855221	-0.14972557	0.14087176	0.14814264	-0.09450706	0.12362809	0.091251686	-0.21234553	0.11624656	0.17729919	-0.07858003	-0.14758268
-0.052625038	-0.00650837	0.08487257	0.0012689077	0.0789171	-0.028330961	-0.09560262	-0.13019748	0.1043821	0.009467054	0.040427152	0.1207683	-0.10759925	-0.047967326	0.11186327	0.149263
0.13653426	-0.25019005	-0.074043974	-0.11208607	0.04155057	0.21922944	-0.09803305	-0.15528671	0.053326115	-0.10889922	0.04602328	0.1356561	-0.22821403	-0.09154984	-0.1935503	0.055705786
0.17522353	-0.08518003	0.13889247	-0.27409935	-0.03960095	-0.1802377	0.117729925	0.075724445	0.23796384	-0.1970907	-0.027923929	0.056175668	0.2576959	-0.27718976	0.2814593	0.08102194
-0.22758782	0.16615015	0.08785231	0.2291936	0.19866778	-0.07723804	-0.25288552	-0.17276174	0.2359708	0.15831591	0.19361271	0.17278759	-0.24852379	0.076039456	0.13344595	0.13086222
-0.04646728	0.014049432	-0.0620494	0.0056650513	-0.023389783	0.048893206	-0.09378911	-0.015638579	-0.034748312	0.097767435	0.046708055	0.021706372	-0.19674313	0.044670828	-0.16593738	-0.035654303
0.3340057	-0.32635814	-0.19421493	-0.38858402	-0.22177504	0.43051073	-0.124816656	-0.1841104	-0.16797023	-0.3901582	0.37295413	0.30805483	-0.23588946	-0.4143548	-0.22471455	0.031717405
0.030663792	0.058551274	-0.0034664513	0.10152525	-0.06159743	-0.052126702	0.17243746	0.06213559	0.05467303	0.059354633	-0.106785715	-0.14898781	0.023262162	0.08180175	-0.102623396	-0.103052855
0.064079836	-0.15254572	-0.044077616	-0.07874104	0.07266551	0.1404235	-0.046264745	-0.09810804	0.06680307	-0.037372176	0.020832416	0.017111218	-0.076010734	-0.008093275	-0.14575097	0.028998436
0.01278279	-0.0008134721	-0.041837245	-0.14913042	0.02780532	0.046178948	-0.16533619	-0.15899478	0.09521823	-0.017001763	0.17177182	0.2456342	-0.23340368	-0.05835896	0.06587031	0.117041014
0.42365438	-0.45724842	-0.27630726	-0.45383966	-0.4075664	0.29250583	0.08663189	-0.04528417	-0.11166055	-0.39838678	0.34114	0.34719434	0.11121429	-0.4276262	-0.16051733	-0.15139176
0.054662257	-0.15187533	0.012043368	-0.19020934	-0.01948025	0.1190246	-0.16491601	-0.12046951	0.14431195	-0.2010412	0.19141968	0.27811295	2.8170674e-05	-0.30100492	0.08162058	0.13013011
0.1021162	-0.17141043	0.15786195	-0.26630554	0.08470242	0.11732534	-0.0718887	-0.11130613	0.20796606	-0.23046197	0.16690664	0.21637811	-0.018756852	-0.2965143	0.053747296	0.16399655
-0.016323756	0.020194825	-0.07515866	-0.091651745	-0.11765053	-0.12338643	0.1789464	0.111056395	-0.0022213275	-0.041747753	0.032124225	-0.1752232	0.18766932	-0.035901107	0.029215503	-0.103102125
-0.12213633	0.026233591	0.15856889	-0.144001	0.14144185	0.002120283	-0.37359777	-0.27128232	0.17861935	-0.13947687	0.37919098	0.35407054	-0.20112297	-0.32577285	0.22226644	0.25893876
0.42613238	-0.4512208	-0.41842085	-0.4346499	-0.47257677	0.4946388	-0.16828749	-0.13268615	-0.30953512	-0.4279038	0.51939476	0.44005096	-0.052499883	-0.4843117	-0.39575505	-0.19696146
0.33926934	-0.3861481	-0.13696657	-0.13662733	-0.073882304	0.33398628	0.09867492	-0.24576765	-0.072067864	-0.20836332	-0.024064107	-0.02488471	-0.1505577	-0.103009805	-0.3260734	-0.05957357
0.0176618	-0.029200738	0.20326672	0.30868673	0.26820374	0.07525939	-0.0905077	-0.23996575	0.25393218	0.17030667	-0.12294014	-0.030346934	-0.24360411	0.25809082	-0.13015758	0.20848082
0.18403725	-0.11481625	0.22918898	-0.21852048	0.008118455	-0.067611076	0.10276315	-0.03301235	0.21209909	-0.27356172	-0.020158874	0.004368816	0.26615322	-0.2740248	0.2102239	0.16359699
0.033126462	0.00837661	0.00020781407	-0.017171476	-0.081305034	-0.08357795	0.14680253	0.09493658	0.016484158	-0.06122697	-0.026283095	-0.0686858	0.13223612	-0.08026796	0.11016029	-0.07071607
-0.12548664	0.07560372	0.2878702	-0.030092033	0.29502857	-0.01082326	-0.35131744	-0.3111641	0.26501843	0.070088655	0.1885719	0.2991009	-0.28887546	-0.18537763	0.1951341	0.3330588
0.12173599	-0.16207333	0.117588624	0.053091954	0.12189085	0.22782159	-0.03884761	-0.25458148	0.096499726	-0.03484465	-0.007201817	0.060112033	-0.257935	0.018445564	-0.22755769	0.12029406
-0.016926216	0.026859626	-0.08002624	-0.08714797	-0.16244881	-0.05261391	0.18178478	0.1266429	-0.0951494	0.023290306	0.08841781	-0.13384314	0.21197942	0.011996753	0.02491375	-0.08809907
0.15391171	-0.12379749	0.0392909	-0.01543653	-0.00012048819	0.104817346	0.08782761	-0.13895537	0.006163605	-0.0681342	-0.0038307768	-0.01057671	-0.03984084	-0.079221256	-0.10438599	0.06967864
-0.18180692	0.16703434	-0.077646025	0.15538925	-0.07453973	-0.123328246	0.00018884405	0.0855144	-0.049802914	0.1448224	0.11570073	-0.09591164	0.095871575	0.21498226	-0.008667609	-0.18524668
-0.14742371	0.17353123	-0.14160372	0.42798573	-0.121249236	-0.13688672	0.24654648	0.19800682	-0.20437415	0.27326456	-0.030631017	-0.39028525	0.051598076	0.35398448	-0.18148522	-0.20043889
-0.0986636	0.12944284	0.006551009	0.15822902	-0.020579716	-0.053140625	-0.12955359	-0.010220934	-0.0046607163	0.18978769	0.106571496	0.084963895	-0.1940494	0.15129787	0.010005851	0.0043158797
0.07037162	0.005239265	0.06658053	-0.003473011	0.07322724	0.0035009463	0.14603971	-0.01725169	0.037163015	-0.051740058	-0.08843071	-0.0784896	0.02573886	0.07347477	-0.016581958	0.015872724
-0.057990167	0.054630145	-0.013624322	0.03971734	-0.07051558	-0.09807109	0.029780691	0.012398493	-0.056102864	0.120316215	0.06322075	-0.039999206	-0.037712984	0.08663392	-0.028991671	-0.09335252
-0.07236237	0.1846629	-0.022504615	0.016811822	-0.07799401	-0.26206046	0.03529576	0.10123925	-0.00021649539	0.09452826	0.132976	-0.07822997	0.20154361	-0.04208938	0.20543419	-0.06478489
-0.047159933	-0.05126702	-0.003978733	-0.03054815	0.063309446	0.08049263	-0.1970358	-0.13145153	0.04305028	0.020785162	0.14925613	0.23027566	-0.21890768	-0.09108603	0.08011812	0.11452326
-0.2855255	0.27670005	0.33139443	0.26206803	0.37892222	-0.1151868	-0.3858926	-0.4228386	0.42475793	0.31040204	0.19801529	0.33570588	-0.40526518	-0.013126526	0.19542943	0.3127816
0.070543654	-0.11410751	-0.007868217	-0.10644131	-0.036984432	0.06612262	0.02499263	-0.050973043	-0.047878545	-0.14827713	0.047907878	0.06544878	0.06476335	-0.09360849	-0.019892333	-0.042007316
-0.123182006	0.13234994	-0.18392538	0.15741056	-0.13502684	-0.14673577	0.23703213	0.1868699	-0.08465045	0.089097954	0.019049814	-0.31634068	0.13307472	0.11151428	-0.08778718	-0.20894213
-0.152756	0.16968745	-0.18034737	0.15660793	-0.17911442	-0.20473963	0.08697224	0.14471701	-0.18731605	0.18437533	0.17459244	-0.1316943	0.10501879	0.17659043	0.005597155	-0.21748672
-0.0766944	0.074810036	0.1594422	-0.10154839	0.03983044	-0.2583732	-0.14253709	-0.05396402	0.272012	-0.043215357	0.13161705	0.20356715	0.049495127	-0.17210273	0.31235197	0.122485735
-0.03765825	-0.1024772	-0.040208872	0.0006622587	-0.018917907	0.09355132	-0.051052235	-0.05828809	-0.056960765	0.076778874	0.046085157	0.03307393	-0.11864102	0.02932497	-0.120068155	-0.068333924
-0.06231246	-0.064460084	-0.01675566	-0.22483443	0.07654023	0.1668185	-0.35864598	-0.3091157	0.15113868	-0.110949524	0.47990945	0.48319444	-0.37805593	-0.2848513	0.113233194	0.21472071
-0.23176496	0.21805172	-0.16408801	0.24661523	-0.14471681	-0.20444097	-0.06483092	0.17781264	-0.0930616	0.2515337	0.16114682	-0.1223555	0.0760909	0.24090357	0.02934725	-0.21027069
-0.092902526	0.14433499	-0.0049191355	0.11598557	0.009265368	-0.09659456	0.0016672872	0.063299224	0.056699708	0.03098732	-0.0056144693	-0.08490843	0.08452645	0.07904706	0.03494056	-0.021866567
-0.13132097	0.1433869	-0.1337743	0.12935409	-0.22546461	-0.15317541	0.2128775	0.16637371	-0.08393308	0.14754173	0.033523943	-0.17616677	0.2716835	0.1287425	-0.036970813	-0.15228657
0.04670409	-0.06074535	0.16469143	0.117442615	0.15131937	0.073467195	0.14027043	-0.10446163	0.13122793	-0.013571126	-0.11123498	-0.08827061	-0.0051452913	0.06674794	-0.04936248	0.114373304
0.37735814	-0.45769185	-0.43019265	-0.4081131	-0.47897807	0.44353124	-0.07499824	-0.17858875	-0.37383288	-0.42302284	0.5055752	0.47873762	-0.063596435	-0.47243568	-0.45814854	-0.18689765
-0.26440114	0.25910214	-0.2977427	0.10813701	-0.31089208	-0.20572905	0.1879812	0.2775551	-0.2724344	0.21434832	0.29907468	-0.26951313	0.2793488	0.20401742	-0.028442428	-0.26077163
0.14650388	-0.09912981	-0.040256303	-0.069019325	-0.042264827	0.15294984	0.18879738	0.043990444	-0.04686355	-0.042118125	-0.009411703	-0.13007139	0.020693395	0.026161015	-0.15353139	-0.09407006
-0.054313615	0.11408685	0.06852121	-0.035744272	0.023105003	-0.09986966	-0.089307666	-0.041137148	0.2153691	-0.008032257	0.18364593	0.18599322	-0.026938679	-0.09443769	0.22569777	0.06910637
-0.20962206	0.18167062	-0.2432628	0.17986146	-0.23812477	-0.21399982	0.16289909	0.21550713	-0.13045047	0.23595954	0.0869059	-0.21887304	0.14450696	0.16644555	-0.022232732	-0.26914147
-0.0820108	0.061837323	-0.08705363	0.020431694	-0.12635817	-0.13157997	0.06825838	0.09530964	-0.03379155	0.072536014	0.07974023	-0.07160938	0.13163991	-0.02392606	0.062064573	-0.13420622
-0.38517052	0.39401358	-0.27203003	0.3216206	-0.17742932	-0.37139374	-0.1727093	0.2154068	-0.21203388	0.28731433	0.4030282	-0.0031096963	0.051646356	0.2607291	0.18704127	-0.23958048
-0.029839337	0.07213677	-0.076429784	0.018817388	-0.13403134	-0.22281723	0.098521896	0.17140841	0.038719624	0.028044973	0.03419807	-0.089725554	0.15953496	0.018475343	0.07857517	-0.09651779
0.15321015	-0.16445199	0.23727264	0.3292442	0.28488338	0.22490638	0.08348231	-0.3316532	0.22174421	0.012474226	-0.19569306	-0.20876999	-0.32930985	0.22198023	-0.2992672	0.14272673
-0.22677924	0.21610938	-0.29163757	0.3107636	-0.24602608	-0.26527044	0.14123969	0.1823356	-0.2781106	0.27181634	0.2007971	-0.23997676	0.18364897	0.25709334	-0.06983695	-0.28723514
0.25594148	-0.27427444	0.28026354	0.36725184	0.37970945	0.33301565	0.36968198	-0.29598445	0.3624991	0.09691188	-0.37293756	-0.3931835	-0.18609118	0.32675284	-0.31358513	0.11023401
0.0008398164	0.08365695	-0.0693681	-0.023752356	-0.1240353	-0.06887118	0.11720856	0.089991376	-0.07873574	0.056520317	0.044224963	-0.12644686	0.19482814	0.026995644	-0.031239009	-0.097550064
-0.20012559	0.19564618	-0.25065845	0.09686584	-0.20167069	-0.1690426	0.036823515	0.20800544	-0.20296028	0.1850187	0.22164519	-0.09368184	0.111786045	0.118197836	-0.023464663	-0.19957438
-0.272625	0.27556053	-0.15135875	0.23925029	-0.13231553	-0.24465305	-0.16921099	0.052505776	-0.05643275	0.22397223	0.30458683	-0.013168262	-0.029731149	0.21966301	0.16885303	-0.07545722
0.3403293	-0.402714	-0.27064338	-0.40537214	-0.26510322	0.32684216	-0.1058494	-0.16908026	-0.15515383	-0.3412561	0.33690014	0.36062768	-0.10750682	-0.36055222	-0.23406772	0.017918121
-0.35070887	0.36005172	0.37062946	0.09651864	0.38019723	-0.18480007	-0.48996678	-0.38476312	0.40698934	0.14630494	0.38987762	0.40769717	-0.4070366	-0.21707053	0.46631896	0.41119176
0.07323986	-0.09106683	0.15217607	-0.100969754	0.0072636204	-0.0024062754	0.064569205	-0.00088304176	0.24218242	-0.17209248	0.03668559	0.04459612	0.094669774	-0.23931819	0.15733646	0.081113
0.20177682	-0.24794427	0.10129599	0.1278251	0.07310589	0.2103084	0.3121757	-0.13980323	0.049302995	0.011054748	-0.18613134	-0.23073944	-0.0430202	0.117822	-0.30948773	-0.0026248845
-0.18578675	0.070349835	0.14202116	0.0738145	0.16612303	0.00090789713	-0.32869107	-0.21398425	0.1821544	0.07631818	0.26083294	0.27560973	-0.35820055	-6.121001e-06	0.13595079	0.18542303
-0.033879172	0.03254423	-0.07207064	0.023922743	-0.047035057	-0.041127536	-0.009728882	-0.0058992887	0.045798235	0.032186024	0.024909342	-0.0405381	0.03506964	0.021178786	-0.044178262	0.012512656
0.3184692	-0.28965372	-0.11812049	-0.3860434	-0.21750033	0.3609489	-0.19021548	-0.1768485	-0.103822075	-0.29960012	0.35023507	0.26718733	-0.16478172	-0.37175268	-0.21620065	0.096620396
-0.17322156	0.10639036	0.021383597	-0.0052802577	0.019324731	-0.1358369	-0.18349516	-0.02763004	0.04411166	0.026297735	0.23529465	0.12797822	-0.121939994	-0.0020051647	0.15697218	0.02675278
0.20868805	-0.20641561	0.047187682	-0.089179024	-0.020191489	0.067313574	0.25059313	-0.04487379	0.09983904	-0.19717517	-0.09418948	-0.12552172	0.10670439	-0.053429686	-0.07741078	-0.011321616
0.21887977	-0.3001116	-0.1431894	-0.3532324	-0.20129673	0.22061118	-0.07462005	-0.1663334	0.011564372	-0.26809624	0.27591172	0.20281786	0.020912217	-0.31209022	-0.06486674	0.019660933
-0.010145067	0.025287878	0.07552728	0.05889511	0.14321345	0.036051553	-0.07002312	-0.07701833	0.13406068	0.06751455	-0.042511094	0.01876528	-0.060995493	0.008264543	0.051317908	0.1366706
-0.12230873	0.10761535	-0.1072086	0.10100342	-0.01317907	-0.06441436	0.002262147	0.051159203	-0.01258257	0.0779115	0.12397482	-0.06179972	-0.06478307	0.103500314	-0.039283197	-0.06335927
-0.11536531	0.09539185	0.07525477	-0.018879026	0.10522096	0.044828393	-0.29723415	-0.13408169	0.09136521	0.103089616	0.21277109	0.26233315	-0.26557764	-0.04811408	0.047088247	0.13084137
0.13046844	-0.27153882	0.1533203	0.14449364	0.21857652	0.22714126	0.10296431	-0.24555759	0.11923723	-0.031922717	-0.18517898	-0.15118258	-0.23842871	0.0853072	-0.24559918	0.08574685
0.17671248	-0.15332071	-0.07663941	-0.24217606	-0.120173864	0.13908081	-0.008367139	0.016783807	-0.060193777	-0.12243137	0.17397264	0.1462973	0.017772464	-0.14657518	-0.12854533	-0.02289366
-0.24434142	0.27464682	-0.3270422	0.27985722	-0.2955563	-0.30021706	0.27918318	0.34198552	-0.3141176	0.27023965	0.25415757	-0.38005742	0.2904566	0.27312073	-0.14404738	-0.34393948
-0.07482342	0.10674919	-0.012510338	0.12773718	-0.01302111	-0.03729515	-0.0252839	0.005004413	0.026112383	0.09586444	0.036603212	-0.0350478	-0.07496211	0.07104042	0.023297325	0.0019578608
-0.14096874	0.107319824	-0.017251862	0.16901208	-0.0038818677	-0.12080441	-0.08032019	-0.031398233	0.07520051	0.14751175	0.09118955	0.03772576	-0.0068524648	0.053925294	0.058894817	-0.023158852
0.06362214	-0.069529876	0.015399786	-0.12657349	-0.058727186	0.060355604	-0.0060753683	-0.039783146	0.057415415	-0.09515283	0.10010543	0.06754422	0.06059718	-0.10399271	-0.03135155	0.030180687
-0.13216032	0.0844338	0.111887775	0.16679259	0.21664383	0.025361566	-0.14543802	-0.21015805	0.17009167	0.08395987	0.0703663	0.1603196	-0.24602485	0.1411057	0.04776328	0.09339732
0.2353169	-0.27509493	-0.064534076	-0.22001453	-0.08327873	0.21403866	0.048384327	-0.119676776	-0.07356547	-0.20292337	0.09865699	0.10813236	-0.05284549	-0.15619175	-0.19127996	-0.039997607
-0.10279681	0.07787652	0.003779794	0.09770656	0.011396357	-0.09939638	-0.06551102	-0.06628046	0.091560364	0.08588819	0.055722438	0.00634542	-0.065280095	0.03294207	0.02842891	0.0015399919
0.009887768	-0.0025325576	-6.466784e-05	-0.049049713	-0.079068914	-0.0030692585	-0.0094545055	0.007098908	-0.027679993	0.0320592	0.04267531	-0.0089414455	0.0077199163	-0.0008670101	0.02532882	-0.0068299863
0.09138658	-0.13019063	-0.063876994	-0.095015004	-0.08096094	0.14283952	-0.00648591	0.0008825262	-0.11413766	-0.025481584	0.0053360085	0.017726898	-0.06970557	-0.01958675	-0.17188601	-0.09008152
-0.12465503	0.12996809	-0.19401765	-0.01598108	-0.16718674	-0.14403743	0.13106813	0.1556217	-0.1394561	0.12270712	0.11546125	-0.13824694	0.14911142	0.08094833	0.09098331	-0.19014525
-0.091031425	0.004757204	0.05590736	0.09355455	0.042707644	0.0115695745	0.0106268795	-0.033396594	0.057232577	0.024379117	0.065736234	-0.036324434	-0.017079052	0.04641076	0.0037140346	0.04430052
-0.12623468	0.025204249	0.06996777	0.02148524	0.08631222	0.05900851	-0.1686912	-0.15488426	0.12134579	-0.01669684	0.13729852	0.13930047	-0.161732	-0.017322425	0.037712313	0.09173089
-0.08292403	0.102563865	-0.095590375	0.06738865	-0.15026328	-0.093887225	0.041312356	0.16902229	-0.090307616	0.10238565	0.08515563	-0.15160403	0.1392749	0.061398957	-0.017649945	-0.117851906
-0.09546748	0.07508913	-0.054237638	0.06812136	-0.050241016	-0.025624434	-0.022147845	-0.011473277	0.0034313798	0.14163114	0.05498889	-0.0950882	-0.08259646	0.10263859	-0.106896006	-0.09735781
-0.11702978	0.0059616845	0.23466411	0.095716484	0.33429208	0.053865246	-0.24309696	-0.24818587	0.2752422	0.042680193	0.07971952	0.18194382	-0.27746394	-0.025941906	0.08766973	0.28994748
0.14194892	-0.1503598	0.3458126	0.06914462	0.25058	0.051972985	0.18399441	-0.19462244	0.31842083	-0.13845152	-0.18413633	-0.06638432	0.1449847	-0.100309305	0.027177067	0.2724222
0.022722598	-0.11577673	0.028568307	-0.0023178933	0.045554485	0.16408536	-0.005173492	-0.154417	0.050799128	-0.021721348	0.02191842	0.09403082	-0.15062672	-0.013024721	-0.063797496	0.04428829
0.41386423	-0.38713065	-0.3519371	-0.44226077	-0.40887436	0.3873306	-0.14742619	-0.17689742	-0.27471262	-0.37616724	0.37658882	0.3929822	-0.14410083	-0.40753147	-0.41696626	-0.052333653
0.23972045	-0.30038792	-0.13640341	-0.17085893	-0.05783793	0.28392056	-0.0018409044	-0.114780605	-0.07675005	-0.25624996	0.11208525	0.119675756	-0.17271543	-0.20369947	-0.18946841	-0.030672198
0.06764022	-0.059629392	0.09395427	0.148426	0.15633538	0.050666727	-0.014615062	-0.15418574	0.13360102	0.055358864	-0.15561163	-0.07683133	-0.17012718	0.09528119	-0.11468608	0.11940031
0.044775493	-0.051453374	-0.020321677	-0.05571412	-0.05022363	0.110979885	0.07854656	0.007121861	0.019873744	-0.003244848	0.030327965	-0.06106926	0.018313594	0.05113485	-0.14736512	-0.021654764
0.00752531	-0.034461487	-0.04913371	-0.061333925	-0.04523211	0.028541712	0.1201581	0.0006251815	0.03901043	-0.0006677898	0.014556156	-0.06557925	0.08059879	-0.015537698	-0.024657365	-0.061072428
0.16718623	-0.1546383	0.05287362	-0.13221249	0.052188855	0.11528325	0.036954228	-0.06611367	0.1465287	-0.14741945	-0.03798335	-0.01470988	0.07253884	-0.17472796	-0.04332002	0.076290175
-0.019271404	0.03050618	-0.12120714	0.142216	-0.062098093	-0.049756322	0.12986535	0.07219162	-0.1182248	0.09429018	0.02652922	-0.2084301	0.061287735	0.12816627	-0.103220604	-0.17949226
0.25677323	-0.32975474	-0.16033714	-0.26804525	-0.13039967	0.29151255	-0.022505151	-0.12276017	-0.097741894	-0.27876726	0.15536904	0.15165365	-0.121029355	-0.23383161	-0.16514422	-0.00048775075
-0.12641574	0.08666598	0.14717418	-0.019250978	0.14956537	0.016323095	-0.20025846	-0.21432762	0.24894558	-0.018968044	0.12289437	0.21523246	-0.16914392	-0.117154635	0.17200299	0.24700363
-0.2416873	0.24701439	-0.24645028	0.24313784	-0.27612898	-0.19417424	0.23828559	0.24250717	-0.24184266	0.19659987	0.15868844	-0.21338199	0.18857403	0.2510786	-0.03782571	-0.26897842
0.2873715	-0.32134515	-0.23213275	-0.33079764	-0.23809935	0.31905645	-0.054711133	-0.15034387	-0.14331718	-0.3765604	0.28908244	0.3268321	-0.07028996	-0.28721523	-0.24677601	-0.01762015
0.3471795	-0.195345	0.30110052	-0.37460217	0.014967684	-0.2278285	0.42186803	0.120420575	0.37533206	-0.3849116	-0.28504494	0.0065842373	0.4012616	-0.41846576	0.37541562	0.28689966
0.0205198	-0.04927687	0.24689397	-0.046741333	0.14632738	0.029301936	-0.114240535	-0.18503907	0.23073032	-0.06745249	0.059636027	0.17452498	-0.1348512	-0.11803621	0.07104303	0.2565097
0.061210573	-0.093343966	0.00670685	-0.0895383	-0.043441147	-0.0399253	-0.011272121	0.036874857	0.07239121	-0.107660905	0.055107515	0.07321136	0.08034488	-0.06349432	0.016778374	-0.022557667
-0.10039199	0.11166153	0.29102567	-0.002398709	0.2344715	-0.07490974	-0.19564329	-0.30410787	0.3237747	-0.012032395	0.073893525	0.2643431	-0.2316109	-0.07054725	0.18301551	0.23738609
0.24269322	-0.043504186	0.24315876	-0.35541093	-0.15392037	-0.34511235	0.4701322	0.27159348	0.29553398	-0.28138068	-0.2663893	-0.15601955	0.5211406	-0.3188323	0.42528352	0.11775075
-0.08418003	0.09619151	-0.10233198	0.09061378	-0.05460107	-0.07164017	0.10187727	0.116096124	-0.04283344	0.08075232	0.016784566	-0.17667438	0.1203515	0.10218067	-0.022237243	-0.07611257
-0.055972636	0.08272562	-0.086573705	0.059439417	-0.17395581	-0.1674157	0.18631914	0.11568864	-0.04460214	0.028452523	0.042850994	-0.10673452	0.23351762	0.039844014	0.07888577	-0.10962343
-0.18715274	0.18004207	-0.29505706	0.03101181	-0.2636557	-0.10423243	0.10345627	0.21881402	-0.23710538	0.18856074	0.29652852	-0.14024474	0.089291856	0.20318988	-0.10978085	-0.19154447
-0.04968495	-0.024187302	0.07514132	-0.09435394	0.08765944	-0.059270795	-0.06949963	-0.10366784	0.15826482	-0.031307638	0.0048372317	0.08922659	-0.036385767	-0.09410011	0.13843496	0.13467453
0.1227578	-0.16054644	0.25040066	0.32361335	0.25066867	0.17941771	0.08106088	-0.2841895	0.22306743	0.12855533	-0.1940194	-0.18734643	-0.29219192	0.2950003	-0.2689349	0.10598954
0.17553438	-0.17570707	-0.115214124	-0.23129478	-0.13540088	0.24082874	-0.1633318	-0.17939006	-0.0788855	-0.20539467	0.2939933	0.26671517	-0.19186027	-0.3122653	-0.11631954	0.07711555
0.16286829	-0.25261053	0.14380454	0.15765901	0.20385395	0.24073993	0.15822183	-0.27573213	0.18159144	-0.04059993	-0.19614027	-0.123505846	-0.110199906	0.12633798	-0.25611743	0.11915682
-0.013890415	-0.004211576	0.018285876	0.15476084	0.02928109	-0.025872061	0.06662863	0.04135133	-0.060230386	0.14138737	-0.059112456	-0.057029653	-0.07093252	0.116428755	-0.07466851	-0.07749573
0.08866948	-0.078637205	0.1258533	-0.050969787	0.06662514	-0.13057338	0.22605766	0.056080837	0.24723767	-0.12421704	-0.13953464	-0.09663911	0.26833782	-0.06010133	0.09679956	0.089458644
-0.0741713	0.16574605	-0.10297847	0.03020102	-0.1968686	-0.2284756	0.21505864	0.17244732	-0.10376073	0.077544816	0.095869966	-0.2282734	0.2191746	0.041931555	0.078490965	-0.20306715
-0.21920632	0.24542573	-0.17028157	0.26854348	-0.20111541	-0.1938065	-0.05739237	0.16025867	-0.13908538	0.26855907	0.17548542	-0.07334769	0.01782486	0.21287233	-0.041331064	-0.14831598
-0.1422788	0.11856204	-0.008047899	0.02964652	0.097318076	-0.115633555	-0.1905765	-0.098298326	0.0908172	0.050512157	0.11867835	0.14254098	-0.1099625	0.03827024	0.17375694	0.08003401
0.035590664	0.012531586	0.04486682	0.028331162	-0.03549508	-0.042175323	0.0785931	0.092176594	0.0580599	0.015351168	-0.096591085	-0.124185026	0.13970867	0.032268625	0.011754834	-0.04728619
0.091085844	-0.15077367	0.30619982	0.22486639	0.35450447	0.26665378	0.016888835	-0.36072794	0.26806897	0.06753599	-0.18721092	-0.10260176	-0.38828707	0.1943473	-0.17079438	0.15928204
-0.020169217	0.014693096	-0.06433831	-0.057730887	-0.04128835	0.053698804	-0.0739027	-0.050637845	0.03872564	-0.024851471	0.026514813	0.050033346	-0.030318692	-0.02735705	-0.013087193	-0.060271557
-0.19738902	0.23121133	0.2583713	0.19445212	0.29130733	-0.10188823	-0.30176637	-0.23886593	0.34918568	0.18738243	0.23455992	0.24980776	-0.25866586	0.0085420525	0.20180626	0.25232416
-0.08894903	0.17138882	-0.15733522	-0.0141026005	-0.24438772	-0.1224847	0.26081228	0.2510992	-0.1810493	0.11387434	0.120496996	-0.1989261	0.2159432	0.13628398	0.047295876	-0.17576154
-0.33330652	0.3517002	-0.37889782	0.342502	-0.36568892	-0.32631513	0.29098383	0.2809681	-0.31932396	0.36746502	0.27866554	-0.37284902	0.23521774	0.33097765	-0.19421808	-0.31055403
0.18027528	-0.26701954	0.31265137	0.35036916	0.31402507	0.23659413	0.14774272	-0.34798282	0.2615778	0.2690455	-0.29348952	-0.2323142	-0.27827466	0.35847977	-0.30397463	0.15692145
0.33937457	-0.33494598	-0.32509044	-0.3762173	-0.36153066	0.4150849	-0.0708994	-0.044656437	-0.28252536	-0.31322607	0.35238242	0.29023543	-0.07447488	-0.3585555	-0.27035007	-0.08788618
0.008401564	0.0091645755	-0.006886397	0.08861797	-0.0032624747	0.013993159	-0.081792705	-0.0027996134	0.024885813	0.070647575	0.0015998167	0.021561896	-0.07244161	0.07974019	0.008989694	0.053207275
-0.086728916	0.122371666	0.02086759	0.17047097	-0.0071550813	-0.12454774	-0.07585887	-0.009967811	0.04676506	0.10177031	0.06133489	-0.008285829	-0.023059582	0.08487059	0.033621438	-0.06377306
-0.020399276	-0.07433015	0.24097192	0.27958292	0.31214595	0.12604475	-0.10014096	-0.24296467	0.29327863	0.08732219	-0.09370708	0.041321885	-0.24287148	0.13068306	-0.08826108	0.18032819
0.08980181	-0.07163553	0.09988436	-0.09632781	0.08784152	0.02369318	-0.044341847	-0.0951219	0.16403314	-0.052629594	-0.037287783	0.023769516	0.0051681553	-0.11813579	-0.035888046	0.1469305
-0.024217645	-0.008010063	-0.023248708	0.051681783	0.037899435	0.05832255	0.0038369277	-0.068093464	-0.026500905	0.052319534	0.040572125	-0.015641874	-0.076169774	0.084361196	-0.024159078	-0.043366298
-0.035689387	0.06023065	0.0049191494	-0.020952288	-0.017985918	-0.11097157	0.043953206	0.041828983	0.05296809	-0.019924665	0.032599878	0.011949355	0.11738638	-0.105588876	0.07798857	-0.030812081
-0.41667175	0.29955217	0.31534836	0.18058437	0.3293152	-0.2493726	-0.36387196	-0.3674382	0.3716802	0.2189762	0.38175642	0.4003933	-0.37325314	-0.070198126	0.35029826	0.33449632
0.12986442	-0.12007319	0.24322075	0.084013335	0.29294464	0.1681884	0.050414387	-0.23240238	0.28417528	-0.115789115	-0.20711876	-0.08850054	-0.1167426	0.038174227	-0.06564299	0.24005258
0.048019607	-0.17294605	0.09119654	0.12797154	0.18338192	0.19924143	0.09405857	-0.12154767	0.09435481	0.034388736	-0.12430627	-0.071333475	-0.14161603	0.046510898	-0.17192192	0.13345154
-0.10621827	0.12893382	-0.0716533	0.053058777	-0.074368	-0.03343814	0.08796693	0.12523443	-0.0343822	0.12565367	0.081073344	-0.13506806	0.05176958	0.052049913	-0.041319646	-0.07660556
0.30624235	-0.27195135	0.23776904	0.3374422	0.33162242	0.28202346	0.37221056	-0.22977169	0.2601056	0.006495366	-0.28310865	-0.38897133	-0.1457891	0.23159185	-0.2875504	0.17642033
-0.36857295	0.25243628	0.21673736	0.16436839	0.30110112	-0.18571155	-0.38222545	-0.33316663	0.2848925	0.15775424	0.39265427	0.41592583	-0.41727772	-0.10285689	0.25049093	0.31469202
-0.03912397	0.04382015	-0.047062397	0.07796039	-0.06516947	-0.023779802	0.22193207	0.09385235	-0.041330338	0.046853043	-0.03957266	-0.15693164	0.10116082	0.11377764	-0.08649962	-0.11239445
0.22782095	-0.209735	0.22594617	0.35377198	0.2984068	0.25498492	0.2325869	-0.2987491	0.2503093	0.064955965	-0.32688263	-0.26325646	-0.23902158	0.34793672	-0.366478	0.12311129
-0.07035094	0.09439735	0.083807945	0.026450133	0.058283135	0.0078288885	-0.15007499	-0.08647897	0.13318075	0.07798368	0.09020957	0.11477479	-0.24190955	0.03092905	0.033766847	0.079889484
-0.087223694	0.03781589	-0.020793004	-0.0086937435	-0.096120104	-0.056296576	-0.09811075	0.031016279	-0.0048008547	0.035365053	0.14929688	0.046662655	0.049672585	0.014270507	0.06941856	-0.022317437
-0.4406808	0.4023509	0.31868476	0.26266685	0.40459335	-0.23422754	-0.42657426	-0.38608217	0.37621087	0.27289212	0.4163381	0.38370985	-0.4900071	-0.101071	0.3657874	0.34766248
-0.053296667	0.13308093	-0.03146241	0.020915987	-0.11435194	-0.11256849	-0.038962565	0.05491631	-0.0344382	0.059584774	0.15844512	-0.05291806	0.012109144	0.022865005	0.041585032	-0.06401271
0.1559434	-0.1814507	0.12079617	-0.057065222	0.16529083	0.2162592	-0.0065011214	-0.1643638	0.11669871	-0.08906717	-0.07531216	0.02865391	-0.12135531	-0.042085707	-0.14263651	0.090672925
-0.035046615	0.011237453	0.083328955	0.07153571	0.084457055	0.07247863	-0.082757175	-0.11806485	0.1254892	0.07631456	0.02242861	-0.00029212167	-0.14462975	0.051274583	-0.03632555	0.0545578
-0.07451318	0.07540913	0.17579135	-0.0028950532	0.17332782	-0.096808106	-0.23320599	-0.14630173	0.26418635	-0.08492578	0.12007093	0.20152026	-0.07670392	-0.09764736	0.23211715	0.19354104
-0.15978757	0.06720819	0.1801628	-0.01767585	0.20307	0.021866336	-0.33470488	-0.2606088	0.25804672	0.08262135	0.40227666	0.32543626	-0.3601477	-0.17875679	0.28078175	0.2508488
-0.06537862	0.0015693331	0.026387025	0.010271166	-0.02841651	-0.035412055	0.0061438405	0.0002466484	0.10379876	0.008850689	0.059231564	0.006827177	0.025941316	-0.022487983	0.10274955	-0.008746126
0.33653477	-0.43276983	-0.4125122	-0.43498498	-0.3771664	0.402479	-0.11301736	-0.17452969	-0.23820664	-0.33924428	0.4502154	0.33575514	-0.065256305	-0.41880524	-0.41013464	-0.15106413
0.116864614	-0.10391066	0.13099238	0.1395557	0.13046548	0.09289957	0.29660678	-0.042670097	0.13040102	-0.048830166	-0.27266	-0.2892986	0.10568004	0.054330207	-0.12687507	0.0466111
0.010820468	0.051723715	0.008069724	0.0865031	0.0262896	-0.054056823	-0.0010126147	-0.021355288	0.06704101	0.04414366	-0.043369886	-0.079569496	0.04616188	0.06300953	0.030261004	0.0046402016
-0.038699523	-0.018753117	0.03339421	0.1530982	0.070488736	-0.032778043	0.020095274	-0.016863236	0.06210458	0.07539601	-0.09020425	-0.06053522	-0.03054844	0.09039137	-0.113310345	0.01552786
0.22945341	-0.08578356	0.18979645	-0.26303732	-0.065982416	-0.3473531	0.3954095	0.10871175	0.30560902	-0.2536665	-0.22501521	-0.053994335	0.3926171	-0.26571113	0.2847549	0.1635536
-0.05737943	0.021697795	0.088417694	-0.033694863	0.084703654	-0.009670349	-0.10902457	-0.08679205	0.2077408	0.034200136	0.11587696	0.17145315	-0.07665498	-0.015325699	0.14564328	0.08237516
0.05106302	-0.029541358	-0.09291738	-0.087868854	-0.0741748	0.06588109	-0.025477733	0.0150000965	0.017482728	-0.043857753	0.09539887	-0.046007704	0.02791083	-0.023290027	-0.0060774335	-0.03557572
0.05728172	-0.09292622	0.034656245	-0.012514549	0.061893687	0.10618743	-0.10816616	-0.13462862	0.04107941	-0.11416214	0.00010085645	0.080796294	-0.09569053	-0.09929959	0.016988326	0.06759819
-0.0542341	0.055362012	0.21863379	0.12811981	0.23814291	0.07729662	-0.13678636	-0.22238028	0.20131953	0.05840488	0.06881146	0.18788636	-0.28572726	0.07323587	0.012162954	0.13755795
-0.11549033	0.071335346	0.07325035	0.016241958	-0.00014951255	-0.10160309	-0.17348227	-0.09174744	0.094426915	0.036845006	0.11636924	0.18487076	-0.121715926	0.017066386	0.12839806	0.027562784
0.1946134	-0.20521767	0.28652066	0.05970321	0.19249	0.14689735	0.13472567	-0.1529635	0.26949263	-0.14643505	-0.24234004	-0.09661007	-0.0020041182	-0.05049048	-0.10752538	0.2806739
-0.03423985	-0.0005421134	-0.060106315	-0.005669189	-0.08572473	-0.012186711	0.06407563	-0.016244173	-0.037190687	0.07302745	0.05055896	-0.093957506	0.059378985	-0.00095161196	-0.015959742	-0.024345214
0.14897697	-0.15580189	-0.0017178445	-0.17505687	0.03240379	0.21463451	-0.10646389	-0.16835356	0.00023102772	-0.14371184	0.09634575	0.116496764	-0.16647977	-0.12277053	-0.09662362	0.13961624
0.0667373	0.011654246	0.053699195	0.10055634	0.018458907	-0.023219597	0.19140129	-0.00016625383	-0.019572748	-0.0004937571	-0.13841873	-0.2650236	0.105979644	0.12985039	-0.07200727	-0.06639705
-0.01917785	-0.043340646	-0.16450861	-0.043460276	-0.11122337	-0.015433778	-0.06943472	0.038998898	-0.11980141	0.08183531	0.24113913	0.059514124	-0.03942092	0.016249834	-0.10420117	-0.13841964
-0.16436967	0.12037086	0.04653948	0.014028831	0.13131045	-0.14684133	-0.28308323	-0.15041092	0.15364379	0.027640069	0.26605484	0.27668914	-0.21984297	-0.040196545	0.20568559	0.16622002
0.111907125	-0.11513624	0.008083338	-0.006407237	0.020309614	0.1443342	-0.102702364	-0.113489605	-0.0045111007	-0.043358393	-0.016070249	0.0395417	-0.17798439	-0.018451383	-0.13320369	0.030328473
-0.16306698	0.16763557	-0.07206305	0.25575483	-0.06390805	-0.08104488	0.06393329	0.08007416	-0.06377524	0.22351368	0.005231545	-0.16433735	0.05776518	0.17489457	-0.089175865	-0.16455534
0.010314756	-0.04465098	-0.010150068	0.0862309	0.0073280307	0.07787953	0.10153898	-0.030720143	-0.01949157	0.0019393938	-0.088639185	-0.15556282	0.030465957	0.04886106	-0.1778617	-0.03473371
-0.12359412	0.09861199	-0.14818428	0.30001068	-0.017545065	-0.040174384	0.32080016	0.046322018	-0.17574409	0.26728675	-0.1050894	-0.35307547	-0.013008055	0.3486803	-0.27944064	-0.23049633
0.05207291	-0.044682384	0.011523891	0.018745057	0.004732487	0.072336495	0.0064280997	0.0032273137	0.010787912	0.058076154	0.058266424	-0.03550785	-0.060557865	0.057131644	-0.07360242	0.021689357
0.02263406	-0.049347248	0.0181032	-0.07527928	0.013983259	0.15273717	-0.008456679	-0.09676523	0.050426148	-0.028494246	0.034577616	-0.029736819	-0.05431491	-0.008622903	-0.071419016	-0.013372068
0.033727884	-0.0069964468	0.03473793	0.03634547	-0.020660229	-0.050031256	0.15535049	0.08766973	0.06580416	0.013776632	-0.036484458	-0.11185725	0.1701724	0.053033423	-0.022522425	-0.011903156
-0.12848695	0.1428541	0.18492535	0.2468977	0.26173326	-0.013822082	-0.13324837	-0.2215661	0.26477602	0.17035744	0.004519188	0.09709067	-0.2262011	0.15461174	0.039449897	0.147261
0.15927076	-0.2529791	0.23814471	0.17846507	0.2812197	0.2583558	0.15382017	-0.24148598	0.19665913	-0.022722289	-0.26492465	-0.18951128	-0.15664385	0.16794233	-0.20262069	0.12112524
0.1375814	-0.14830841	0.04352605	0.17507467	0.19239649	0.19271906	0.16434188	-0.18309493	0.107607365	0.07976521	-0.16731144	-0.14326091	-0.17776383	0.15785116	-0.25033864	0.018570565
0.24417123	-0.2991471	0.296522	0.36564484	0.29098043	0.36158246	0.32211962	-0.2784944	0.21191092	0.07862989	-0.35765415	-0.31828633	-0.3132564	0.29657176	-0.32304865	0.13945287
-0.07305378	0.04008317	0.14268084	0.07973509	0.23428753	-0.009440809	-0.23403832	-0.1884734	0.26913956	0.10529262	0.09120762	0.17343505	-0.24826981	-0.045702845	0.119191274	0.2153958
-0.28145635	0.33061665	-0.22257958	0.27620098	-0.32663968	-0.34485087	0.20484188	0.3009968	-0.28688467	0.29750732	0.25423557	-0.23520249	0.26216912	0.22046022	-0.0035094714	-0.29915735
0.085289195	-0.07734077	0.17087582	0.18671943	0.22616917	0.15200906	0.15502024	-0.1928972	0.11503248	0.025471669	-0.1437609	-0.18657738	-0.08204822	0.10884377	-0.13854778	0.10966265
-0.0149548305	0.020706141	-0.06429522	-0.06841514	-0.08620949	-0.011773163	0.071443945	0.033124276	-0.02292132	0.038785	0.010982862	-0.03411486	0.057718128	-0.01682361	0.02038412	-0.05863959
0.2018231	-0.26038727	0.01787118	-0.25425214	0.011796635	0.19445178	-0.059404213	-0.21736014	0.1045831	-0.17047422	0.08774713	0.2156352	-0.083883636	-0.22355805	-0.01965499	0.10108446
0.26359442	-0.33968854	0.25457808	0.41878468	0.31204447	0.28028458	0.4144507	-0.27722824	0.33355832	0.19488394	-0.32623678	-0.44833127	-0.28204527	0.4000503	-0.3767006	0.16728573
-0.09597811	0.051569648	0.22470212	0.15147728	0.26190424	0.0073105167	-0.21205994	-0.23185746	0.21048757	0.11179917	0.09210301	0.16346791	-0.23562297	0.016306521	0.07656329	0.21753326
0.11141351	-0.11807016	-0.02091427	-0.054429233	0.0061890683	0.14663367	0.0012476147	-0.12567002	0.00149897	-0.03033246	0.004998553	0.0604379	-0.1732803	0.0038910762	-0.10511655	0.02939095
-0.2562496	0.3237231	-0.29430896	0.22403346	-0.22701639	-0.22723076	0.121376455	0.28700244	-0.266858	0.28905815	0.2358285	-0.28224134	0.23190705	0.3308993	-0.049399182	-0.26269215
-0.21238382	0.15179391	0.20619744	0.051102184	0.26752204	-0.09544937	-0.2937217	-0.23712991	0.23358832	0.15764412	0.2622504	0.3461609	-0.2933134	-0.04440345	0.23322797	0.27731693
-0.14633936	0.15694974	-0.05536189	0.21843481	0.03168739	-0.15425058	-0.06136529	0.015597298	-0.016028972	0.122132294	0.07118481	-0.00035925212	-0.040746413	0.106238924	-0.005588395	-0.031111592
-0.15088408	0.17392436	-0.096673734	0.1034485	-0.06207131	-0.17005765	-0.050562065	0.13791354	-0.04507927	0.1702703	0.12979588	-0.048523992	0.054703575	0.1650633	-0.008640523	-0.14479001
-0.16943043	0.14098999	-0.04525656	0.08932159	-0.10769111	-0.080298096	0.010410068	0.04242872	-0.098349415	0.11264237	0.0651267	-0.0005393636	0.043188073	0.10512459	0.04527363	-0.12006057
0.04011073	-0.07382378	0.020305758	-0.08743965	0.029682104	0.08238738	-0.0105972	-0.016384266	0.113420345	-0.14288081	0.08964747	0.13013329	0.013299925	-0.13939717	-0.02625941	0.105235405
0.085992865	-0.050294947	0.04175542	-0.04821793	0.06524221	0.06836639	-4.3236418e-05	-0.14143732	0.11182512	-0.115911715	-0.050295707	0.006568652	-0.038757622	-0.13200994	-0.017333757	0.14727034
-0.078333415	0.06422238	-0.0027712104	0.09754208	0.018841054	0.01772214	-0.011522651	-0.06891881	0.06909376	0.029231923	0.009938286	-0.03542646	-0.08554657	0.08770908	0.015173191	-0.016117446
0.06252987	-0.10059214	0.120146565	-0.06137955	0.111219056	0.09729473	-0.09412302	-0.21054488	0.17243977	0.0004471796	0.018457783	0.0666073	-0.18453903	-0.06374353	-0.059082042	0.16880475
0.072589554	0.0044114767	-0.019487532	-0.048684463	-0.03232547	-0.12108149	0.22726828	0.10835094	0.05595735	-0.087131284	-0.099290796	-0.1253474	0.19719195	-0.060521282	0.07153361	-0.041035276
-0.07700025	0.102389924	-0.1790269	0.16547883	-0.14505121	-0.13798034	0.13396315	0.12267818	-0.19720845	0.106412336	0.0875657	-0.16734156	0.077266924	0.18452014	-0.12106573	-0.14776714
0.18160792	-0.23028274	-0.09145679	-0.09343623	-0.01954652	0.30903202	-0.023742134	-0.23807602	-0.024148101	-0.21214797	0.010803144	0.05646337	-0.24131441	-0.1354237	-0.19981635	0.10740478
-0.1528462	0.09001001	-0.02160212	0.0512857	0.053834796	-0.12832788	-0.10459322	-0.056533482	0.13078393	0.08849423	0.08313097	0.11179066	-0.15335241	0.058588922	0.04593503	-0.0147266565
0.35334867	-0.17022467	0.23719141	-0.37775555	-0.12877719	-0.26782894	0.30950862	0.18868487	0.30478978	-0.31756493	-0.24418321	0.021321543	0.3345283	-0.32963538	0.36223817	0.21792299
0.102182016	-0.1287042	0.05368234	0.071141064	0.19368532	0.14413817	-0.012131663	-0.18890136	0.119236	0.017474845	-0.12082146	-0.09770963	-0.18714313	0.081225954	-0.1263248	0.023898445
-0.11127179	0.021552157	0.28553712	0.11456751	0.31852	0.00043815208	-0.224182	-0.26926965	0.26476	0.036581095	0.12876776	0.20801526	-0.29421663	-0.050465185	0.07823391	0.32769117
0.05813296	-0.112583466	0.16775179	0.0676276	0.08322705	0.01965041	0.103891954	-0.047869246	0.16762626	-0.0733247	-0.12067254	-0.17892213	0.04098464	0.08819392	-0.066936634	0.11129036
-0.07444578	0.07863461	0.03405034	0.01548767	-0.013126149	-0.049795207	0.0024208766	0.02431369	0.12998302	0.07261683	0.034062307	0.04010356	0.004724251	0.036665805	0.1063622	-0.0030029174
-0.12600332	0.18341038	-0.09687875	0.12629108	-0.073403016	-0.11908905	0.11565786	0.1320278	-0.0030449906	0.12182323	0.064365625	-0.0886871	0.09772595	0.15903842	-0.034654222	-0.13803382
0.072749265	-0.15180354	0.021284759	-0.15248792	0.042646643	0.07608602	-0.015843008	-0.12635604	0.09189864	-0.087546155	0.039360795	0.06525898	0.0114948	-0.12410157	-0.04327154	0.11238296
0.21972674	-0.2741311	0.25450945	0.3649524	0.36568925	0.2684741	0.35116842	-0.32366702	0.3334993	0.14658219	-0.37737426	-0.4152065	-0.2747201	0.40596256	-0.31207582	0.08031499
-0.116742276	0.057224944	0.056118805	0.2483824	0.06233877	0.001144189	-0.024697807	-0.08664647	0.04002099	0.16779292	-0.0019401023	0.006245	-0.14555894	0.19855563	-0.03197914	0.04741464
-0.06985234	0.03952043	-0.07683772	-0.031837896	-0.0883355	-0.02936383	0.008193121	0.0069743823	-0.039034832	0.0074749724	0.086834714	-0.049909644	0.010430362	0.03346214	-0.10394447	-0.13304707
0.07395048	-0.12342282	0.07417515	-0.15913235	-0.04115747	0.118611656	-0.06669136	-0.11709166	0.07763779	-0.1752409	0.09143121	0.17710021	-0.009947216	-0.2050414	0.02808812	0.09545235
0.037683543	-0.0060777916	-0.018079996	-0.074347496	-0.01667211	0.10446132	-0.032304563	-0.012180096	0.022180885	-0.05808801	0.015825825	0.0004740621	-0.046681285	-0.041659374	-0.044272188	-0.037416887
-0.15293024	0.11299267	-0.05533279	0.1835356	-0.07368787	-0.07106324	0.13302869	0.1553713	-0.09889825	0.115210384	-0.03639369	-0.14590128	0.12464986	0.18331565	-0.13058995	-0.15519863
0.14408405	-0.20214072	-0.11210677	-0.19727312	-0.1552072	0.111608304	0.011667585	0.033215206	-0.08442496	-0.17447333	0.100497805	0.036514476	0.05459207	-0.17112418	-0.15183973	-0.06082384
-0.15748554	0.10155916	-0.18356149	0.11403953	-0.24352895	-0.07029154	0.16238588	0.16124809	-0.15624712	0.1765196	0.07845816	-0.24247096	0.14655392	0.17438164	-0.08292823	-0.24302433
0.15336075	-0.09337474	0.18437667	-0.18713108	-0.043780953	-0.060200356	0.20935349	0.06258985	0.23376787	-0.1897703	-0.15062356	-0.009613666	0.2742045	-0.22527944	0.20289773	0.07119688
0.01918384	0.06465679	0.005540556	0.14711627	0.015473641	0.013423695	0.17892997	0.047454234	0.06244266	0.043979466	-0.09022443	-0.1718087	0.02256555	0.13775401	-0.044084515	-0.032072943
0.08478917	-0.034390688	0.04276779	-0.047857396	0.04287653	0.095869556	-0.07260509	-0.03811803	0.048190065	-0.10907067	0.0818542	0.09438806	-0.026907355	-0.07041481	-0.016671635	0.032581538
0.08946066	-0.14414121	0.21360776	-0.00664929	0.18225154	0.122677624	0.009493673	-0.26409143	0.18210493	-0.09079188	-0.13363919	0.016127683	-0.05895788	-0.07280127	-0.09290308	0.21120627
-0.0907494	0.10353154	-0.08070763	0.10255958	-0.093432374	-0.08809087	0.07589085	0.052545	-0.06445566	0.11420516	0.06986335	-0.066343166	0.048718393	0.12307946	-0.09350057	-0.13926893
-0.07591964	0.089159295	-0.07750132	0.07367564	-0.091207914	-0.05303619	-0.021013241	0.021200247	-0.056911472	0.055100985	0.10687416	0.004155885	-0.054126166	0.032371957	0.041147687	-0.089213654
0.08977368	-0.06744354	-0.1232232	-0.19435993	-0.1790342	0.040736627	0.0749992	0.059895683	-0.0060335733	-0.08293401	0.16504654	-0.006863169	0.114269905	-0.11294889	-0.07508315	-0.09568143
-0.021221925	0.015826466	0.20789367	-0.0721108	0.1738323	0.0012096857	-0.2467869	-0.17495051	0.22894755	-0.06985169	0.20685293	0.29293546	-0.13082443	-0.18076594	0.19256513	0.21961772
-0.03246901	0.059756152	0.094485074	-0.10022523	-0.01921635	-0.09744073	-0.118012756	-0.07726845	0.16343354	-0.052770026	0.1674677	0.24994455	-0.06412499	-0.15317257	0.1878922	0.15908635
-0.10782377	0.053767685	0.048565898	0.08861008	-0.048504	-0.09695541	-0.042800184	0.0155787235	0.08170088	0.072491914	0.060954276	-0.008141259	-0.009819741	0.011979967	0.09389841	0.017615693
0.13223623	-0.10354521	0.16842787	0.13318083	0.15771215	0.118396945	0.14548539	-0.08057291	0.23368411	-0.0072790603	-0.1758754	-0.16865838	0.017717661	0.049170647	-0.059120998	0.09498981
0.25117964	-0.2478814	0.19739817	0.14217947	0.2321807	0.21142557	0.31715977	-0.14941868	0.21551308	-0.0483984	-0.2469776	-0.24907711	-0.04907224	0.15882407	-0.18024342	0.12737413
0.034496576	-0.08458439	-0.075519755	-0.087733	-0.108193666	0.120513305	0.021987148	-0.015500019	0.0060161036	-0.008335722	0.019018155	0.002672607	-0.009180312	-0.07001735	-0.14370741	-0.07324578
0.01999251	-0.051262993	-0.012735309	0.0721977	0.03279271	0.11348976	0.038195178	-0.019952951	-0.04122117	0.015092802	-0.020313602	-0.079134345	-0.12495924	0.08965436	-0.08121081	-0.03302262
0.08112558	-0.036260035	-0.022943359	0.060863003	0.08433912	0.09655876	0.043563582	-0.034806434	0.0015352672	-0.0019433887	-0.03779866	-0.09802848	-0.087369055	0.12772134	-0.1106823	-0.030693457
0.045659266	-0.07964687	-0.035252143	0.059767872	0.019448789	0.08586858	0.06560457	-0.023318944	0.037049025	0.033185266	-0.07850776	-0.10351624	0.006440898	0.06270157	-0.08602857	-0.023536198
-0.009621122	0.043391928	0.013093182	0.024373982	0.024334865	-0.053858906	-0.01211017	-0.038275264	0.024966216	0.062368173	0.077952914	-0.032951757	-0.0845603	0.08648816	0.018085744	-0.03526561
0.37071842	-0.2867515	0.4017592	-0.3509275	0.05972598	-0.35831738	0.44073054	0.18584864	0.42344865	-0.40068865	-0.37344846	-0.06938558	0.40084022	-0.3550542	0.37247622	0.27235132
-0.1435543	0.050239984	0.23024282	0.2487997	0.2797805	0.06161059	-0.17076804	-0.31066984	0.3070071	0.25008813	-0.03926464	0.13042578	-0.31523523	0.20166163	-0.047524374	0.1570738
0.05531705	-0.11440582	0.17599522	0.008877964	0.17934342	0.14416564	-0.054313373	-0.18679954	0.13871658	-0.03761414	0.015335896	0.09273621	-0.10937875	-0.042015344	0.018978529	0.19274864
-0.32095033	0.33417988	-0.3095425	0.30965567	-0.28300205	-0.26905084	0.27613822	0.30241093	-0.29483882	0.35323542	0.35308912	-0.2972437	0.32363304	0.3465396	-0.12459684	-0.28021494
0.050161995	-0.033839203	-0.003161612	0.06769753	-0.029962271	0.020104319	0.18732166	0.09312608	-0.07270959	0.040303376	-0.06055315	-0.15117325	0.08113669	0.08588162	-0.09016863	-0.06709135
-0.2199106	0.21227457	-0.22502857	0.15118475	-0.29178917	-0.23964171	0.23820643	0.21465476	-0.15061869	0.16921766	0.13635547	-0.2593036	0.29382235	0.17471974	0.058068454	-0.24157888
0.109286636	-0.14143711	0.15704177	-0.26143467	-0.05418202	-0.067236595	-0.0330057	-0.02167116	0.23099469	-0.24052492	0.17686479	0.23481913	0.076736905	-0.28298423	0.16964659	0.22446133
-0.051268503	0.019866925	0.07086271	0.09833079	0.093114175	0.06195406	-0.033142727	-0.078406096	0.12982742	0.025187803	0.009387803	0.026094638	-0.13890353	0.04903604	-0.10429565	0.07855853
0.1475335	-0.11869632	0.1573343	-0.14938676	0.012082007	-0.05139443	0.056757994	-0.048376597	0.17751224	-0.14064261	-0.047464453	0.061038177	0.061284482	-0.15682474	0.04593927	0.14198774
0.06457656	-0.12956996	0.09335872	-0.07099048	0.10052489	0.0026525338	0.04347558	-0.06682266	0.10965832	-0.08496418	-0.02852851	0.04857148	0.030560177	-0.04010542	-0.037738245	0.12975588
-0.19004115	0.22024195	-0.23087007	0.2938588	-0.18115182	-0.21154185	0.13031052	0.20339023	-0.24751505	0.23384757	0.21726862	-0.25417972	0.1985912	0.21147561	-0.08489333	-0.28407657
0.083561145	-0.10139644	0.21145375	0.25752696	0.27901053	0.20221196	0.07375729	-0.17783657	0.24248518	0.11414675	-0.16595617	-0.21502317	-0.21866448	0.25776297	-0.16539891	0.15298472
-0.14717624	0.15816286	-0.15835989	0.15230829	-0.09807611	-0.17246214	0.11137402	0.15765364	-0.13061757	0.17441486	0.044815596	-0.15594642	0.116161294	0.18250646	-0.042998176	-0.1513235
0.09874689	-0.046859536	0.06455194	-0.13097097	-0.05720808	0.04333143	0.03764581	-0.0067916033	0.041876733	-0.059942614	0.02167943	-0.009173705	0.10169628	-0.14559647	0.06489403	0.06893467
0.1633011	-0.13622576	0.20437102	-0.14717472	0.062155187	0.05179295	0.1440876	0.008190261	0.19403186	-0.16085136	-0.09018355	-0.03547955	0.114870474	-0.08905419	0.03079217	0.11638671
0.067525916	0.008417419	-0.050197963	-0.06793368	-0.019968642	0.042504594	-0.023513734	0.04370846	-0.072335236	0.010510506	0.023028933	0.0032280285	-0.009536124	-0.031710993	-0.00512735	-0.074244216
0.08490845	-0.073659256	0.023139507	-0.120126076	-0.078383006	0.068718374	0.07087892	0.05942527	-0.020114273	-0.074744955	0.043697566	-0.060537703	0.040486958	-0.07211917	-0.05880159	-0.065874204
-0.037947748	0.035990603	-0.07147405	0.24772203	0.063044615	0.009298721	0.060395207	-0.00072843547	-0.017617302	0.14963242	-0.0872789	-0.182913	-0.078368895	0.17226687	-0.062465377	-0.032727055
-0.21375345	0.13581565	0.21913595	0.12376662	0.21581468	-0.03860678	-0.3023965	-0.28556278	0.26291487	0.17459399	0.17821641	0.284268	-0.3662644	0.035005245	0.14756119	0.25936982
0.00366503	0.08620874	-0.00013646367	-0.04657486	-0.047066893	-0.020034442	0.0020027775	-0.006561005	0.0012999377	0.041321944	0.030721314	0.041391294	0.014703223	-0.03098878	0.0094705485	0.0019722825
-0.030637648	0.05033655	-0.0037893697	0.021026358	0.042184833	-0.008555931	-0.1310205	-0.045937084	-0.021192983	0.028411819	0.07956128	0.09605138	-0.1515742	0.062288865	-0.0070168804	0.040628985
-0.21829464	0.30433846	-0.2598958	0.23873761	-0.3596139	-0.28013197	0.24460344	0.31474423	-0.22698525	0.3153165	0.28165543	-0.27888203	0.22679728	0.22460702	-0.068045564	-0.3376894
-0.25399932	0.28738216	0.33783552	0.065052606	0.27948427	-0.30180824	-0.33329207	-0.21884863	0.30054364	-0.0015855322	0.28857133	0.3672563	-0.13062575	-0.22234294	0.33185458	0.24141121
-0.04433769	0.084855795	-0.07652853	0.14746612	-0.0601993	-0.0042482633	0.004898144	-0.003742683	-0.05302122	0.11022497	0.01632498	-0.09455689	-0.05641243	0.133374	-0.13425419	-0.111624055
0.07191942	-0.06554837	0.013134822	-0.064349666	-0.06589882	-0.0095646465	0.08172571	0.057184864	-0.018283235	-0.083151385	0.04050655	-0.042330027	0.15035953	-0.06479215	0.04953687	-0.026648372
0.0075906105	0.06206638	-0.08247903	0.04988156	-0.071489386	-0.025024898	0.092284605	0.061293267	-0.091413	0.08160496	-7.697535e-05	-0.069350034	0.05314107	0.020440206	-0.025955973	-0.07897728
-0.05112787	0.07129965	-0.016134819	0.052117407	-0.025495179	-0.1413413	0.0013311339	0.068171166	0.02079232	0.055352416	0.06666703	-0.01675371	0.12015431	-0.0023337505	0.085635886	-0.06713574
-0.103477135	0.082861364	0.05823013	0.13522889	0.06024428	-0.069218986	-0.07391468	-0.047254764	0.14850768	0.04742024	0.028290983	0.066366054	-0.096099004	0.032102197	0.07967897	0.10276483
0.02272125	-0.09514754	-0.08475956	-0.029883696	-0.046579696	0.059830934	-0.014007036	-0.047229424	-0.014379228	0.0021793928	0.0677823	0.02611808	-0.072709285	-0.032502044	-0.024412887	-0.0012133255
-0.094235905	0.037095636	0.009367059	0.06414556	-0.0011028568	-0.09797272	0.0015068314	0.0005726294	0.087904595	0.03652503	0.011399179	0.013975923	0.09044707	0.04462672	0.04026139	0.025477806
-0.17738229	0.085827015	0.16273037	0.21367851	0.23274001	-0.05251872	-0.23774476	-0.2279306	0.26957783	0.2089586	0.17012034	0.2292037	-0.27203888	0.075409696	0.08077039	0.21672866
-0.060673207	0.026129158	0.05393798	0.0025564923	-0.0673401	-0.15642849	0.04452621	0.08393323	0.1124203	0.033571146	-0.008889907	0.008243391	0.097791344	-0.019996576	0.15873668	0.023999006
-0.14049907	0.16766024	-0.15099046	0.15576436	-0.23445064	-0.18212451	0.13212496	0.17379282	-0.2256357	0.16748658	0.114194244	-0.20664604	0.115568995	0.22695948	-0.07677636	-0.24764323
-0.2555673	0.33291075	-0.3365213	0.3240202	-0.31725463	-0.2470249	0.18633541	0.22717229	-0.3331	0.32245168	0.24375905	-0.24859606	0.27607167	0.36470905	-0.13729963	-0.31147212
-0.12865552	0.06911726	-0.01135776	0.16084723	0.033076365	-0.01273713	-0.020038318	-0.052249346	0.049899798	0.077107355	-0.00504102	-0.040911324	-0.109440066	0.10196979	-0.08285118	-0.04662992
-0.0125167705	0.023198426	-0.024605023	0.04570209	-0.06464679	0.028636273	0.10629449	-0.008114571	-0.02633041	0.030567473	-0.057556797	-0.12817784	0.0033204868	0.04095572	-0.050527874	-0.08226614
-0.10868757	0.0078011593	0.07574144	0.1262689	0.15918432	0.04280026	-0.15181062	-0.10653553	0.1420675	0.11743795	0.07956248	0.0387231	-0.1600438	0.05203919	0.0010214492	0.10354943
0.1904653	-0.20438614	-0.24719557	-0.20358433	-0.19859588	0.2159325	-0.14554796	-0.021702409	-0.18971705	-0.1583162	0.27245507	0.24382731	-0.0073396447	-0.27645674	-0.16078614	-0.12692468
-0.061470896	0.03950326	0.03307885	0.14995003	0.052068505	0.07227946	0.009760855	-0.07446399	0.052330267	0.104456	-0.08763288	-0.10545652	-0.11957742	0.16669603	-0.1601425	-0.04358606
-0.15262823	0.11327453	-0.17817289	0.09259393	-0.18620221	-0.14577611	0.20859805	0.16412552	-0.17213736	0.10225371	0.12271786	-0.20744322	0.16035594	0.09629686	-0.12369063	-0.25175428
0.06854218	-0.044636514	-0.057782974	0.0393541	0.025046615	0.13522208	0.033730514	-0.06630018	-0.031621102	0.04362059	0.026039153	-0.052661307	-0.08605507	0.06038275	-0.08141244	-0.021842327
-0.05584347	-0.006555106	-0.018970342	-0.07183968	-0.023254981	-0.03914727	-0.022065137	0.027622622	0.00014918989	-0.03729035	0.112348765	0.09542186	-0.035910837	-0.022559376	0.038281742	0.06817846
-0.19921966	0.1782565	-0.18976994	0.118927345	-0.27179983	-0.22687519	0.023516722	0.17431138	-0.18314932	0.13997118	0.30492595	-0.092983626	0.19120833	0.188306	-0.032541223	-0.2532132
0.16043119	-0.16148914	-0.03278513	-0.14836657	-0.078863956	0.17895497	-0.0060475334	-0.040489808	0.014064276	-0.13998994	0.050841548	0.021521302	-0.005966564	-0.0436139	-0.12842844	0.053655483
-0.025177533	0.08749061	-0.07519951	0.108917534	-0.039230846	-0.10344223	0.047540016	0.047149025	-0.015213867	0.1428251	0.01555635	-0.16139111	0.08489946	0.13366461	-0.086510755	-0.061546795
0.0045935945	0.019219523	-0.060649585	0.005922965	-0.028635865	0.088909455	-0.13419512	-0.040437978	0.0031925305	0.07295596	0.13728788	0.12798035	-0.1846929	-0.048502725	-0.032659266	0.018098254
0.061553348	-0.048403613	-0.03226134	-0.1192124	-0.012250524	0.11361381	-0.0066297734	-0.036491983	0.008577648	-0.10108307	0.11877675	0.04671397	-0.005592748	-0.13983962	0.0011136413	0.008777349
0.30745438	-0.1507071	0.28849334	-0.27627736	0.09954374	-0.3689407	0.33752933	0.14681858	0.37799782	-0.27226055	-0.3469033	-0.062649935	0.4119013	-0.2841872	0.33556348	0.28192532
0.07617501	-0.021077858	0.11582315	0.053045403	0.08242173	0.051577102	0.050880197	-0.0902749	0.11886804	-0.028503912	-0.03607989	-0.03354685	-0.02459919	0.045692153	-0.055846594	0.021394292
-0.15678112	0.076595105	0.12545222	0.08078698	0.16147491	-0.055294685	-0.25079232	-0.19136287	0.15627465	0.10945268	0.24119276	0.22818181	-0.19577065	0.0014968337	0.14872824	0.19596301
0.17910807	-0.09656983	0.21730821	0.13246036	0.26258975	0.14615586	0.11917033	-0.118727446	0.22029912	-0.12549749	-0.15863535	-0.03024015	-0.036558233	0.021244394	-0.036604173	0.19233194
-0.18092534	0.11852932	0.20078124	0.006072993	0.2429472	-0.11859656	-0.31477535	-0.26933393	0.30291206	0.06990516	0.18886365	0.3134725	-0.17946446	-0.114995465	0.20288678	0.24326721
-0.115651466	0.16350919	-0.096298054	0.1276578	-0.0800911	-0.16395815	0.06978139	0.07893306	-0.0962634	0.10862715	0.014995832	-0.1715628	0.10817812	0.11807678	-0.03351286	-0.08053493
-0.03832159	0.08893047	0.005314877	0.15252505	0.005962364	-0.05780459	-0.027805317	-0.0019952005	-0.018467266	0.05874856	0.040655248	-0.07882616	-0.016347814	0.10850199	-0.033154037	-0.06432537
-0.09494928	0.10240191	-0.078745954	0.09364132	-0.01029078	-0.055628628	-0.071371086	0.030873772	-0.024104098	0.051369336	0.04817665	0.055499114	0.015662666	0.07316944	-0.022834726	-0.069788486
0.032158826	-0.030912336	-0.08876196	0.203407	0.027527098	0.081788406	0.115685664	0.030370409	-0.13268754	0.11453588	-0.066051655	-0.23510538	-0.08073263	0.24685705	-0.17945392	-0.058059566
0.08242886	-0.17068085	-0.00086984737	0.019933794	0.09396719	0.17662226	0.083140075	-0.13018514	0.018925717	-0.08372855	-0.050681986	-0.052565638	-0.120117575	0.07725528	-0.12189566	0.017365346
-0.098372765	0.09417455	-0.06207546	0.202481	0.04933778	0.0036503715	0.044554535	0.035481185	-0.04815281	0.13112569	-0.027834825	-0.12699585	-0.13211817	0.21409985	-0.122089125	-0.095635936
0.22430754	-0.25904077	0.2452132	0.222986	0.22377586	0.27619332	0.27236828	-0.22606981	0.24189675	-0.005776848	-0.2743429	-0.27983025	-0.1491994	0.22839567	-0.2566043	0.1263554
0.04904133	-0.07678852	0.15766741	0.1569066	0.2029383	0.14214318	-0.02952505	-0.12310036	0.08918304	0.111546986	-0.16420653	-0.100562215	-0.14560737	0.18161257	-0.16200502	0.06183506
-0.03965923	-0.043788653	0.11459241	-0.053478267	0.16445948	0.015310703	-0.12359042	-0.17081232	0.19581236	-0.02811544	0.022201644	0.16879933	-0.058723096	-0.11564631	0.07301191	0.13002177
0.07370632	-0.06464331	0.17597325	0.0594163	0.11373303	0.054094967	0.11219447	-0.11440415	0.18224308	-0.09403785	-0.18130445	-0.02852568	0.09210364	-0.0035515318	0.038023796	0.17983216
-0.34821346	0.29382643	-0.3498289	0.2916566	-0.27902463	-0.32195994	0.19055739	0.34580874	-0.31064135	0.35325938	0.2875676	-0.28245473	0.2647187	0.3194455	-0.17160903	-0.3582664
-0.08054908	-0.02758124	-0.0071987514	0.06290629	-0.026174147	-0.0018663759	-0.1275543	-0.088815264	0.049263533	0.06435874	0.09526237	0.03699535	-0.14148879	0.06406448	-0.0039629973	0.06319427
0.27448297	-0.28320974	0.09107794	-0.22487168	-0.11321035	0.12292496	0.15357849	-0.009937609	0.13140504	-0.29388154	-0.029968778	0.07982447	0.14592999	-0.264712	0.0103652105	0.111460626
-0.021471914	0.073118955	-0.08904554	0.05207005	-0.08525068	-0.07328255	0.058063973	0.011430178	-0.03356601	0.071560204	0.07298126	-0.03761664	-0.017032806	0.008946214	0.024716323	-0.0995367
-0.01859475	-0.0692572	0.04312258	-0.09878464	0.030125367	0.05960621	-0.16304192	-0.087715335	0.14886482	-0.10370201	0.155228	0.1670595	-0.08312847	-0.15019576	0.11457185	0.16763936
-0.24023513	0.21658713	0.18326773	0.16784059	0.2660368	-0.07850394	-0.24339546	-0.22577877	0.18768923	0.15360281	0.24294165	0.29094887	-0.29289007	-0.02981972	0.24221106	0.21985458
0.29360306	-0.34593612	-0.24989623	-0.36037374	-0.36375558	0.34355712	-0.030883685	-0.065399624	-0.258268	-0.26724035	0.3621308	0.2684328	-0.0797168	-0.2659363	-0.3065678	-0.1615879
0.00023502565	-0.03635959	0.018056236	0.027862517	0.016834024	-0.03359078	0.111442246	0.058772765	0.020111201	-0.004811708	-0.09903434	-0.07212631	0.069379345	0.025042428	-0.008005842	-0.044577934
0.0081739705	0.009312713	-0.01035824	0.047040503	-0.0056931325	0.06390947	-0.017892003	-0.03330622	0.038958658	0.05918735	-0.020522835	-0.06654568	-0.055525023	0.067964904	-0.09040998	-0.024988977
-0.111256585	0.06518243	-0.0905268	-0.047394797	-0.09126195	-0.13871957	0.059601683	0.078020126	0.028075034	0.057721365	0.1632282	-0.044735342	0.14003636	0.002638675	0.1634831	-0.07308787
0.03447227	-0.0349232	0.08811796	-0.012843486	0.06750525	-0.055811927	-0.05317395	-0.072081864	0.07653778	-0.0081686415	0.08683222	0.11097334	0.002520771	-0.04499426	0.0028655794	0.058551326
0.07457891	-0.07519319	-0.05934302	0.043512344	-0.034127563	0.047585998	0.058841005	-0.06842776	-0.0492472	-0.0039052905	-0.029700663	-0.079173215	-0.10793217	0.110098705	-0.15148355	-0.031023541
0.013659573	-0.11362645	0.05902232	0.1123133	0.040379737	0.07801082	0.069271	-0.060317043	0.0662973	0.070134036	-0.092930324	-0.10401545	-0.115298145	0.14588965	-0.15880202	0.020264458
0.16447021	-0.25802103	-0.011923225	-0.3452978	-0.16180784	0.173383	-0.10893376	-0.06829984	-0.031695448	-0.30263063	0.2720575	0.25543386	-0.011250602	-0.34150597	0.034486603	0.046975505
-0.128553	0.015956989	0.13628007	-0.04969362	0.16894248	-0.005569214	-0.27017453	-0.22482498	0.19148864	0.0038410828	0.18637972	0.23609732	-0.25334403	-0.103277594	0.15383947	0.19590762
0.051719137	-0.04986235	-0.049087316	-0.20514937	-0.19124201	-0.072195426	0.1970212	0.11835041	-0.03319461	-0.05754258	0.080111876	-0.036718495	0.23541242	-0.13908744	0.082657106	-0.039450683
-0.3011588	0.20222667	0.1479963	0.13829425	0.19132306	-0.1269989	-0.34948963	-0.2229105	0.22968599	0.14272429	0.3191026	0.2788877	-0.3385276	0.044695437	0.22915979	0.18780753
-0.22271195	0.17002206	0.21950968	0.09445361	0.27003947	-0.0908858	-0.25960684	-0.31073767	0.23936911	0.1288127	0.24609034	0.23777257	-0.34830797	-0.030147254	0.23946933	0.2909934
0.27246222	-0.32399112	-0.16184421	-0.26927504	-0.25361925	0.2572578	-0.09644823	-0.115112685	-0.19244242	-0.26637715	0.30260983	0.2902153	-0.090961576	-0.30297983	-0.17558457	-0.05007731
-0.08282279	0.05179342	-0.021784281	0.01708766	0.040995702	-0.0067166463	-0.15816009	-0.07386756	0.06667731	0.065229535	0.085517205	0.06536871	-0.15039311	0.03972872	0.038106956	0.047104932
-0.023107676	0.06678642	0.06050931	0.007585933	0.08762848	-0.06311776	-0.07343647	-0.053140033	0.10510168	0.018756665	0.052423704	0.048058264	-0.060187176	0.012475947	0.10486939	0.07171979
-0.17837034	0.17572397	0.11476692	0.11033633	0.06218969	-0.055551548	-0.21878046	-0.14835949	0.16212142	0.08499172	0.118442856	0.14969578	-0.1962077	0.07390455	0.15648073	0.07309177
-0.04514186	-0.043946985	0.13829325	0.015033705	0.14650601	0.09190173	-0.09601523	-0.20702487	0.12783249	0.07421138	0.0009792596	0.10229933	-0.23046061	0.054383125	0.0017659757	0.15376946
-0.05880174	0.013978152	-0.08270398	0.09308865	-0.050323285	-0.029080931	0.07923514	0.039896917	-0.02688366	0.018738853	-0.06328314	-0.08323541	0.024092285	0.045985054	-0.048642207	-0.064293675
0.15376513	-0.15212901	0.2020838	0.15027909	0.20097215	0.20317127	0.23801526	-0.18525276	0.13797379	-0.056666072	-0.22875638	-0.29276484	-0.077322744	0.1916091	-0.15898752	0.12416287
-0.15492858	0.16431163	-0.16338605	0.082499266	-0.21383582	-0.18484095	0.15638824	0.24387872	-0.086628735	0.12563804	0.10090163	-0.14651754	0.2731676	0.08373167	0.050889987	-0.11628513
-0.121991664	0.19195399	-0.106110774	0.101197645	-0.19036077	-0.13907242	0.18338409	0.1936412	-0.061299074	0.12947963	0.08325854	-0.23068753	0.24970224	0.09444685	0.022269864	-0.14228463
-0.11195703	0.14991738	-0.12648849	0.15392356	-0.17822301	-0.24016744	0.3192876	0.1980152	-0.107901305	0.07736865	0.05356868	-0.20223314	0.24145874	0.07290484	0.034850985	-0.16498503
-0.05037847	0.0042793583	0.12446223	0.057642493	0.13579758	0.0086374385	-0.026495583	-0.08310821	0.12295533	-0.013648945	-0.03734656	0.03730562	-0.009303638	-0.0037257127	0.066449136	0.10546186
-0.104441784	0.09756151	-0.0954665	0.08895251	-0.080380134	-0.15926284	0.08430272	0.16068622	-0.103329465	0.10587656	0.046577144	-0.14552698	0.09655137	0.14292647	0.001562644	-0.15011512
-0.07974271	0.053846113	-0.051520843	0.13938947	0.017628442	-0.017346648	-0.066517405	-0.06713549	-0.025127975	0.1366556	-0.029314779	-0.0014483476	-0.14511009	0.15918308	-0.09621963	-0.06685371
0.0641603	-0.08934693	-0.10217008	-0.10209942	-0.098700985	0.08160864	0.03231049	0.033975158	-0.04028387	-0.081745505	0.05471289	0.019880975	0.028977439	-0.04112407	-0.07679126	-0.053109758
0.039541036	-0.042182468	0.0026150588	-0.054073174	-0.058461126	0.057364553	0.048034452	0.031214694	0.012208272	-0.0057985093	0.08010953	0.04763419	-0.009905401	-0.049352363	-0.0885811	0.010919272
-0.07794517	0.15540501	0.08010845	0.041670714	-0.026716312	-0.1984173	-0.12389552	-0.0036088768	0.06509785	0.045754388	0.12589453	0.017528446	0.013457509	0.019734366	0.1613342	0.036163814
-0.08094792	0.15639763	-0.11767448	0.088300586	-0.09584055	-0.109893225	0.06971448	0.09440296	-0.17102718	0.13586983	0.057536066	-0.13771987	0.057504177	0.1955552	-0.16074888	-0.16254878
-0.0139039075	-0.039838366	-0.0020543279	-0.13476378	0.048582077	0.16132644	-0.21384376	-0.18102534	0.06863434	-0.056889154	0.27777532	0.18675885	-0.25108868	-0.21285446	0.050562166	0.082759336
-0.010710386	-0.0044540293	-0.009651888	0.0064596627	-0.069950804	-0.02781128	0.12671433	0.0021787167	0.034403812	0.026296632	-0.06318463	-0.07472661	0.0641578	0.01929751	-0.038394134	-0.03846158
0.24722297	-0.25424784	0.21937035	0.24782717	0.30984604	0.23639256	0.25622463	-0.21244183	0.3082659	0.006194921	-0.30535775	-0.32404724	-0.08327514	0.129639	-0.23163894	0.16496605
-0.04412512	0.03510944	0.029287072	-0.01251452	0.02268858	-0.03911934	-0.20689258	-0.15468054	0.15026835	0.06860813	0.11334796	0.15240337	-0.110567026	-0.073893845	0.0018688242	0.034058873
0.079737075	-0.03992566	-0.01108983	0.08953474	0.028038125	0.11082392	0.0021650083	-0.11429057	-0.009591689	0.042991016	0.0077497703	-0.0035585188	-0.1596275	0.08005983	-0.18038426	-0.03341598
0.27355453	-0.2838752	0.29757166	0.39099428	0.28767017	0.3252437	0.2668048	-0.29757434	0.28459257	0.030825907	-0.3255788	-0.3219783	-0.21400748	0.27935836	-0.29344025	0.16840169
0.055217598	-0.09718326	0.052243307	0.058117192	0.036498	0.07640983	-0.047983326	-0.17024516	0.070711225	-0.00887382	0.029878581	0.01032521	-0.21088462	0.018720869	-0.1286389	0.054702964
-0.087919444	0.11093326	-0.1076632	0.07273847	-0.202727	-0.14776501	0.17137894	0.19033462	-0.14334635	0.06992755	0.18103679	-0.10550539	0.19593103	0.093159795	0.048784766	-0.1739269
0.09284484	-0.06973863	0.18859237	0.009039133	0.12690145	0.090192996	0.15856217	-0.10910143	0.13316655	-0.121062875	-0.13156286	-0.084666096	0.07732786	-0.043755617	-0.034248102	0.14083469
0.021936087	-0.029167563	0.014142907	-0.059228726	-0.006061784	-0.032537624	-0.091716066	-0.055669706	0.110756345	-0.07147589	0.18292984	0.1868139	-0.09166722	-0.13319252	0.08399443	0.08177658
0.21521266	-0.1666952	0.22312663	-0.26558563	0.044094473	-0.16681322	0.23541537	0.06508058	0.22897077	-0.2224578	-0.18338089	-0.028188648	0.27944025	-0.18961701	0.2558152	0.16156471
0.12291542	-0.1370407	0.14841904	0.11639987	0.10971483	0.19510409	0.13137181	-0.13095826	0.092240326	0.05015915	-0.15744643	-0.11410407	-0.1777689	0.12929022	-0.15994614	0.08676581
0.078724794	-0.16927846	0.11867467	-0.121072225	0.0062102037	0.10603687	-0.07543064	-0.07606712	0.060205787	-0.08597324	0.01678339	0.09161274	0.014806352	-0.059351355	-0.018834563	0.096248455
0.04680901	-0.12753357	-0.036977086	-0.12325526	0.00026567138	0.05208625	0.0028432466	-0.104805656	0.050753392	-0.077010706	0.02334764	0.047868002	1.8390128e-05	-0.078122504	-0.033004306	0.086375974
-0.024929821	0.1340557	0.08634374	0.014572633	0.082336634	-0.18272744	-0.07081021	-0.027618507	0.1688557	-0.03009596	0.021628553	0.016963376	0.05524392	0.004777375	0.09797125	0.07645294
0.185357	-0.1665947	0.096536376	0.18345545	0.19954124	0.18284158	0.2661219	-0.116216436	0.01639322	0.09686249	-0.23031317	-0.25456333	-0.18120696	0.28403252	-0.25154084	-0.056503445
-0.074837916	0.06774141	-0.13748242	0.03732643	-0.09652676	-0.08741799	-0.0040353816	0.04432052	-0.081212506	0.09892134	0.07468356	-0.08007835	0.060737103	0.06866069	0.029812347	-0.08811558
0.31980768	-0.27294546	-0.25867084	-0.2754826	-0.22732328	0.29138744	-0.06089098	-0.09983767	-0.23757346	-0.29782373	0.3775219	0.29095915	-0.07066312	-0.31412852	-0.30156863	-0.0438958
-0.16695744	0.226047	-0.1861697	0.14607431	-0.18931057	-0.21651785	0.021140805	0.15030426	-0.17682353	0.16305338	0.3101941	-0.14706531	0.11404643	0.23314762	0.0054069944	-0.1668884
-0.07044325	0.073679686	-0.010500994	-0.024334272	0.057325285	-0.054981425	-0.11663501	-0.1106965	0.06360134	-0.01057352	0.15876427	0.09269307	-0.104904875	0.0074098213	0.04876021	0.09036092
0.03921228	0.039984446	-0.0026558351	-0.1359469	-0.06515003	-0.1621757	0.09343731	0.11563195	0.078601874	-0.031604856	-0.012472841	0.0056387507	0.16550149	-0.1029701	0.13319457	0.018248683
0.018376332	-0.063956946	0.005294764	0.053892713	0.080030195	0.04378253	0.11438788	-0.10337624	0.054654736	0.07234493	-0.06763658	-0.05500205	-0.033395812	0.093107544	-0.08741498	-0.00097169715
0.0071977153	0.020230405	0.042823847	0.05451624	0.09545314	-0.044778496	-0.044528883	-0.05778742	0.082112536	-0.015814135	0.044024292	0.0543786	-0.020891035	0.069134384	-0.004434833	0.08420468
0.28490782	-0.23075877	0.03758716	-0.30380553	-0.14005466	-0.006882085	0.1571517	0.05071263	0.12849654	-0.21651979	0.03718802	0.1123109	0.25834385	-0.25446796	0.105385296	0.1513238
0.040535767	-0.031218592	0.025129374	0.034087323	0.04633902	0.022231115	-0.047903907	-0.0947741	0.09909296	0.016834874	0.016872969	0.020572675	-0.020130241	-0.037331276	0.0005315768	0.04822917
0.10922739	-0.0076012313	0.062267806	0.18060546	0.07554587	0.021749042	0.27654448	0.044961747	0.0640498	0.06769759	-0.1860619	-0.32903996	0.12291636	0.08596637	-0.12325107	0.032575417
0.30332577	-0.2813599	-0.2405414	-0.27522695	-0.24119288	0.25449595	0.016042905	-0.0645174	-0.16446027	-0.22500283	0.2980711	0.23774461	0.03554549	-0.21745147	-0.24789385	-0.0121342195
-0.07901995	0.04051095	-0.16153012	0.006134328	-0.10730781	0.06187257	-0.053310398	0.099015914	-0.059488673	0.08557506	0.10253165	-0.057607148	-0.00017857664	0.051034193	-0.12764429	-0.13994764
-0.12320825	0.15773922	0.23037985	0.0049865344	0.18882674	-0.3000121	-0.1897898	-0.17386787	0.25895333	-0.0025033066	0.20617715	0.2708651	-0.046891425	-0.20293395	0.351471	0.23059367
0.13344856	-0.113758616	0.11370507	-0.22783865	-0.01638927	-0.16929768	0.2522448	0.10093263	0.21250373	-0.1844497	-0.09308147	-0.012474391	0.27717596	-0.17366995	0.2636914	0.043991126
-0.08927363	0.06025351	0.06808912	0.10766063	0.14696755	0.03526332	-0.15046081	-0.07321919	0.15939572	0.018438134	0.105708495	0.10885264	-0.15036163	0.05891136	0.04648563	0.08392168
0.023900451	-0.056869395	0.10257099	0.11563711	0.17535567	0.10173613	-0.041292768	-0.15240383	0.09355282	0.097025804	0.008049373	0.053441323	-0.22403944	0.06691044	-0.12194685	0.07569167
0.15738098	-0.19186951	0.07385833	-0.05375655	0.038939677	0.2428523	-0.0058436324	-0.19313881	0.1333175	-0.082345024	-0.007768272	0.06981123	-0.18072599	-0.011766022	-0.14059292	0.07605339
0.21382323	-0.11851048	0.17882769	0.053423855	0.105257615	0.15939736	0.24278171	-0.10797531	0.120747685	-0.107945085	-0.16804169	-0.24415429	0.040974576	0.10709203	-0.0937243	0.046120152
-0.20825012	0.116391584	0.2172564	0.097810075	0.19284143	-0.021758702	-0.2411859	-0.22009249	0.20849192	0.2048719	0.11422109	0.19727136	-0.27603132	0.037087966	0.12828588	0.22783251
-0.24949507	0.22755283	-0.2804769	0.23926146	-0.28708282	-0.25907877	0.21038136	0.18343893	-0.23289402	0.20182933	0.22056678	-0.2658215	0.17797408	0.27307224	-0.07862098	-0.2699523
0.10859118	-0.13580316	0.049375758	-0.14219485	0.042018577	0.087467715	0.1391448	-0.053279813	0.15624516	-0.08959225	-0.026345553	-0.0046335934	0.13382088	-0.049999747	0.022470627	0.06150724
-0.00204596	0.0035058348	0.067505375	-0.046047516	0.09651268	0.010914021	-4.053436e-05	-0.14359224	0.094759814	-0.06758389	0.016516244	0.051698923	-0.021589292	-0.06866706	0.08593454	0.09590536
-0.10216353	0.1531169	0.02069081	0.07562587	0.013235745	-0.15072632	-0.09329751	0.038810793	-0.0009240985	0.029921522	0.09443623	0.07040373	-0.019885398	0.06287151	0.06416197	-0.021225138
0.103883974	-0.21590191	0.16913086	0.30040315	0.2558716	0.24026033	0.20847934	-0.17457929	0.1886591	0.15578441	-0.27575094	-0.23472606	-0.23585102	0.30306154	-0.2028198	0.0901812
0.052082993	0.007107315	0.029146165	-0.061916415	-0.0046901405	-0.08974497	0.21809034	0.0075044376	0.036261972	-0.06404434	-0.11731597	-0.15496181	0.15437761	0.013900714	0.03491947	0.020250568
0.3120406	-0.22337334	0.33920667	-0.3517453	0.10341404	-0.37193078	0.3856438	0.10945491	0.3326937	-0.34238544	-0.34102878	-0.037819963	0.44059694	-0.34974048	0.38879734	0.25637668
0.32120976	-0.36401892	-0.29330498	-0.37308785	-0.35347027	0.29988068	-0.018921353	-0.1365118	-0.15195298	-0.31198725	0.30177101	0.33924097	-0.09678794	-0.29618204	-0.25546706	-0.0688155
0.006219311	0.08042446	0.079697184	-0.036957573	0.025401155	-0.05780727	-0.030388687	0.046179406	0.14020179	-0.027151396	0.022208497	0.03933513	0.047268935	-0.029677045	0.115396	-8.68863e-05
-0.071649015	0.02088498	0.09777882	0.06921694	0.11137264	0.033957213	-0.057470873	-0.110447414	0.047272768	0.03748473	-0.028892715	0.040938016	-0.08915215	0.09305264	-0.04947225	0.09232114
0.06403627	-0.07619776	0.06613764	0.0896094	0.08524447	0.14706282	-0.022125877	-0.09625498	0.047134712	0.04892883	-0.06688585	0.03831997	-0.21586193	0.112604216	-0.15871336	0.08251561
-0.13577588	0.1670877	-0.03802563	0.11953393	0.022222893	-0.12825733	-0.09428023	0.03028883	-0.009938948	0.1416512	0.1818285	0.031121748	-0.14411832	0.1664152	0.09025767	-0.0013663102
0.10609716	-0.029989444	0.062691905	-0.07626486	0.08736203	-0.04033948	0.038379513	-0.051144604	0.16717322	-0.11389183	0.00796904	0.05223499	0.07121943	-0.07932567	0.088245474	0.046028852
-0.023692729	-0.07154789	0.051426478	-0.14621721	0.036255162	0.06111527	-0.19330512	-0.20350632	0.098666824	-0.08311125	0.29897928	0.25253826	-0.1840053	-0.19045547	0.09265632	0.15114081
-0.050183043	0.014978795	0.08227621	0.092440724	0.08714754	-0.082251094	0.00904065	-0.045844536	0.14510326	0.04364446	-0.0064217	0.025948491	-0.048539538	0.011012897	0.019111896	0.018258909
0.16579668	-0.2237582	0.25097066	0.24796192	0.2203378	0.24512294	0.08674896	-0.26757288	0.19368787	0.023908885	-0.18854594	-0.20154181	-0.21479695	0.21865314	-0.2542451	0.19714974
-0.03503687	0.13693166	0.043354493	0.10098341	0.032251626	-0.07548757	-0.048520144	-0.037643757	0.0963266	0.07600438	0.040112216	0.022039972	0.062080923	0.042289853	0.10793205	0.0034291125
0.22055708	-0.2505594	0.1651279	0.15311424	0.15851283	0.2195396	0.18413624	-0.18822591	0.13217467	-0.05395924	-0.20725302	-0.16573946	-0.18655224	0.0998863	-0.2271307	0.10484376
-0.019970482	0.080059044	-0.017330552	-0.04241017	-0.022029446	-0.023095373	-0.09632895	0.023986854	-0.06030907	0.050660603	0.083310276	0.021607962	-0.06457644	0.0408967	-0.007110668	-0.01157024
0.0058777365	-0.056177184	0.13884929	-0.012269502	0.1857254	0.08539764	-0.2072162	-0.19426411	0.1566025	0.031283416	0.13090555	0.14299932	-0.24343608	-0.087207615	0.02490369	0.16363946
0.079665884	-0.040118787	0.2038073	0.016646707	0.19224739	0.048464116	0.0025306675	-0.17918836	0.19575623	-0.052960735	-0.03638889	0.0005059639	-0.04946688	0.008654274	-0.00546717	0.09561867
-0.034531835	0.050076984	0.12105039	0.12976389	0.16789548	-0.051191226	-0.024665728	-0.061824862	0.18907556	0.023499513	-0.05151437	0.06197061	-0.10079783	0.026381258	0.03425855	0.12031503
0.12053302	-0.11395921	0.052696947	-0.0650409	0.063545056	0.17421444	-0.029475864	-0.12956636	0.045839004	-0.027067699	-0.00909406	-0.039365657	-0.07219209	-0.05730692	-0.102702476	0.027042672
0.069418885	-0.114284	0.0065053646	-0.10871055	-0.07987037	0.07124713	0.008671352	-0.025679708	0.05503648	-0.12765764	0.06529822	0.05248665	0.06443616	-0.18102622	0.037757136	0.08144983
0.06968536	-0.065451	0.19952899	-0.15986934	0.0062487395	-0.051177345	0.1130387	0.040552806	0.22778666	-0.14194958	-0.012989772	0.050197456	0.10510396	-0.2072535	0.19084679	0.10691561
0.29497302	-0.26729628	-0.17927499	-0.28840277	-0.28331196	0.32542938	-0.042140312	-0.08561387	-0.21517664	-0.29114082	0.32039246	0.18752052	-0.12477995	-0.30063808	-0.23194219	-0.023662392
-0.026778093	0.08414038	-0.059632108	0.06223739	-0.11838167	-0.07716499	0.12049933	0.0766873	-0.086145975	0.049084757	0.02389893	-0.103887595	0.12180665	0.06380475	-0.045857374	-0.08324215
-0.01696279	0.042050708	0.11571108	-0.06343505	0.123709835	0.023647953	-0.10812233	-0.16262668	0.14893895	-0.05078184	0.08103284	0.17036325	-0.157205	-0.05985982	0.09227398	0.11487218
-0.070789	0.111747816	-0.009802116	0.009765666	0.010327628	-0.17216349	-0.0784038	0.079644784	0.089469284	0.054337632	0.12040205	0.06746231	0.09420751	-0.029629163	0.10438617	0.010040316
-0.06499131	0.090761825	-0.010990971	0.12255609	-0.06973012	-0.11607335	-0.04277561	0.02177617	-0.07307382	0.12479181	0.057323426	-2.4835856e-05	-0.059967954	0.102196276	0.011211147	-0.07830392
0.21607745	-0.21346371	0.19590351	-0.21811095	0.0099148005	-0.13379198	0.25561997	0.05579863	0.25944594	-0.24446926	-0.17315169	-0.1602257	0.24141863	-0.16216491	0.18436089	0.15253207
-0.049432818	0.0658774	0.1064609	0.10941438	0.1833861	-0.007522851	-0.1810216	-0.14914648	0.11674732	0.009501471	0.070777655	0.16745916	-0.14404307	-0.017727293	0.12383284	0.102320604
0.3091223	-0.32594672	-0.28776652	-0.3216408	-0.25780803	0.33242595	-0.046127457	-0.11518768	-0.2047899	-0.31121105	0.31168038	0.30238014	-0.09461377	-0.3187297	-0.19723117	-0.008943114
-0.29983172	0.32599074	0.19396582	0.1181391	0.2351206	-0.20847657	-0.3274904	-0.2703497	0.2952535	0.18615903	0.3762728	0.3851724	-0.2968536	-0.08795111	0.31766632	0.21455348
-0.16080184	0.2410151	-0.21119641	0.17974396	-0.20248024	-0.2052493	0.27597263	0.19355513	-0.18115325	0.2433421	0.17674184	-0.31593287	0.19514772	0.273659	-0.1315665	-0.21617928
-0.09800085	-0.019070659	-0.012869915	0.019041032	0.10010659	0.09210654	-0.1223114	-0.16077138	0.026551463	-0.005990524	0.1254014	0.119723685	-0.16434194	0.020657118	-0.022071611	0.11540352
0.14208671	-0.19784263	0.2504654	0.23515764	0.23263073	0.2523147	0.088790245	-0.2158577	0.13772444	0.11839817	-0.16908741	-0.18918268	-0.2678539	0.27570036	-0.22486174	0.17502488
0.060093947	-0.09532626	-0.13842961	-0.23891778	-0.108211756	0.15205596	-0.18259622	-0.11398291	-0.040004224	-0.11206276	0.33040285	0.24027188	-0.10063783	-0.24975662	-0.06343802	0.015317189
-0.053038973	0.040186174	-0.07199377	-0.00562295	-0.046003412	-0.11093005	-0.04851477	-0.005951452	-0.052740525	0.05450042	0.19953056	0.031093918	0.0031752298	-0.0061771674	0.11002198	-0.0057559027
-0.03178313	0.046981823	0.056309845	0.107265465	0.040182814	0.01822516	-0.06060812	-0.0572554	-0.00010220558	0.10828609	0.0054075555	-0.02256987	-0.09479552	0.08027102	-0.0036514052	0.040594928
-0.10954674	0.09591049	0.03861089	0.0034486963	0.033961635	-0.07043794	-0.055345096	-0.023344064	0.08297425	0.07411022	0.15587991	0.06614872	-0.056366365	0.0074062655	0.043682218	0.0067432416
0.18372259	-0.17456745	0.19731027	-0.20914367	-0.0026312748	-0.07711145	0.19671302	0.08163682	0.17171255	-0.2523618	-0.10772108	-0.011162427	0.19066337	-0.21912913	0.15298419	0.09966826
0.21216385	-0.25059506	0.25321865	0.05577812	0.19805962	0.10902655	0.3376279	-0.15254891	0.2163428	-0.16519402	-0.24802023	-0.24639897	0.09478655	0.012650672	-0.09249813	0.11754964
0.059111867	-0.021132017	0.02184229	-0.009869009	0.0022500288	0.04551763	-0.029538184	-0.022719422	0.0019602994	0.03430591	0.0043880804	-0.009291267	-0.07291663	-0.0009329498	-0.06813862	-0.008250667
-0.34251955	0.32833007	0.22393407	0.25240374	0.30190834	-0.25912073	-0.36375937	-0.27700195	0.24945796	0.31076843	0.3056656	0.2945288	-0.30281606	0.0111495685	0.2754887	0.2168596
0.2869017	-0.24016404	-0.04830514	-0.2883491	-0.15066244	0.13865487	0.057480514	-0.06552459	0.083466455	-0.20496142	0.108230755	0.21365617	0.08280587	-0.22461854	0.043178175	0.06148619
0.0199005	-0.06412671	-0.08205154	-0.06548268	-0.14082631	0.07993564	0.10835468	0.10334512	-0.07872218	0.01622306	0.015565876	-0.07341171	0.03164263	-0.046993576	-0.14821638	-0.117707446
-0.05814456	0.017751228	-0.022694036	0.14502995	0.06884606	-0.03251615	0.0078954445	0.041246235	-0.00043113058	0.07531237	-0.08754521	-0.06219043	0.005811064	0.14341775	-0.048483532	-0.055154342
0.030780252	0.02446137	0.0064483783	0.009116179	0.011069244	0.013867924	0.03914071	-0.04897809	0.0100558065	0.024392722	0.025662482	-0.10380829	-0.008759077	0.106579654	-0.10772451	-0.0076148245
-0.060239024	0.005101177	-0.03371171	0.08444308	-0.05793454	-0.033316318	0.15488555	0.07338901	0.012555604	0.092471585	-0.056983944	-0.14371425	0.1034241	0.052579302	-0.02364894	-0.10157275
0.043535374	0.0040680794	0.043560777	0.094591536	0.011904111	0.106779106	-0.0050939093	-0.024936149	-0.028277965	0.001988437	-0.015605576	-0.07776664	-0.10266023	0.122580655	-0.103124835	-0.025956111
-0.009839503	0.032821972	-0.12305426	0.034622446	-0.119190566	-0.1711137	0.18923265	0.12841268	-0.031910937	0.054784033	-0.053703733	-0.23974723	0.22929716	0.029413508	0.04457083	-0.116083644
0.2944405	-0.29190642	-0.28772575	-0.25683048	-0.30952552	0.30228984	-0.010252474	-0.18284959	-0.20205054	-0.29330838	0.3411925	0.32085353	-0.044932466	-0.3039151	-0.2938013	-0.09793328
-0.024440983	-0.018795453	0.062358852	0.11013167	0.13573155	0.14631394	-0.061334748	-0.1628154	0.1269443	0.09291606	-0.06368299	0.092107914	-0.20610967	0.046404418	-0.043746963	0.06529232
0.2702254	-0.094723836	0.27356234	-0.26633233	-0.00793312	-0.3368701	0.36815622	0.21404581	0.3402113	-0.2932683	-0.24554184	-0.11291458	0.3723501	-0.28805527	0.32640377	0.2314103
-0.013527149	0.036568914	0.049983416	0.057942983	0.08080828	0.022715217	-0.0623306	-0.09059596	0.07625968	0.09896618	0.0112856105	0.04671635	-0.14906174	0.058893804	-0.10908738	0.018343447
-0.18858959	0.22883484	-0.11309975	0.14228186	-0.08272841	-0.21176971	-0.07762689	0.14709808	-0.11275975	0.19596794	0.18529284	-0.05997963	0.09774875	0.20512402	0.067270555	-0.10407564
